z -0.51955 1.0725 1.027 0.7482 0.47386 -0.54701 0.88101 -1.2105 -0.59945 0.5566 0.56919 0.8954 -0.65372 0.35823 -0.0016611 0.048983 0.13221 0.049345 -0.21975 -0.075541 -0.44997 -1.1327 0.69834 0.96059 -0.47984 -0.14238 -0.69979 -0.034864 0.37942 -0.8483 1.4117 -0.40342 -0.21487 0.50879 0.47813 -0.82648 0.57283 -1.101 -0.5208 0.48878 0.41509 0.01068 -0.1289 -0.47316 -0.33251 -0.76338 1.0677 -0.85997 0.31486 1.082
θ 1.0169 0.43881 0.2456 0.48396 1.0155 -0.40727 2.5577 -0.29538 -0.061391 -0.49421 0.73627 1.2137 -0.002962 -0.6713 -0.84329 -0.30403 0.47148 -0.054868 -0.87362 -0.12146 -1.5818 -0.91071 1.2908 0.86252 -0.33518 0.59661 -0.44402 0.60493 -0.33144 -0.21256 0.58963 0.64132 0.047904 0.085099 -0.56241 -1.0554 0.59068 -1.5461 0.85334 0.43443 1.2056 0.52619 -1.0735 0.88656 -1.8299 -0.94332 0.99756 0.1992 0.98862 1.4119
ª -0.38761 0.43307 0.30324 0.80288 -0.87821 -0.66741 0.7534 -0.40229 -0.061209 -1.1607 -0.28092 1.2339 -0.99434 -0.019145 -0.23736 0.12599 -0.062971 0.97802 0.73619 -0.083521 -0.016366 -0.97765 0.028733 0.4715 -0.0038295 1.5812 0.83952 0.14493 0.6003 0.65142 -0.29669 0.86608 0.54165 -0.05964 -0.89133 -0.032679 -0.73836 -0.94159 0.7314 -0.28544 -0.52908 -1.5171 -0.22149 0.42313 -0.49955 0.21817 0.88078 0.69989 1.0127 1.2086
න -1.27 -0.54427 -0.3682 -1.0991 -0.058976 -0.94529 0.65857 -0.1345 -0.67874 0.08293 -0.39407 -0.2327 1.0977 0.21299 0.94742 -0.16342 -0.011111 -0.25201 0.16187 1.8398 -1.5628 0.3569 0.80544 1.9323 0.49666 1.1821 -0.030071 -0.77373 0.73824 0.6552 -1.0773 0.055284 -0.84761 0.9398 -0.68531 -0.063285 -0.23484 -1.3279 -0.27786 -0.77431 0.58362 -0.73093 0.56408 0.45832 -0.19178 1.4853 0.97785 1.0863 0.35014 0.56608
ш -0.097532 0.063255 0.2291 -0.3798 -0.17401 -0.63134 0.85983 -0.48442 0.11214 0.10238 -0.30283 0.46915 1.0953 0.30896 -0.35216 0.43744 0.10301 0.224 1.4667 0.90764 0.079314 -0.26715 -0.27572 1.0574 -0.24359 0.83374 0.25816 0.30338 -0.76175 -0.58732 -1.2751 -0.75681 -0.35741 0.40438 -0.53748 0.2231 0.79002 -1.516 0.10864 -0.04168 1.0024 0.03705 -0.46522 -0.37451 0.19293 -0.069763 0.12679 0.20592 0.56559 0.58844
ò -0.52356 -0.4555 0.14136 -0.95551 -0.056298 -0.30015 1.1585 -0.31505 0.27948 0.31445 0.038943 0.86512 0.76973 0.16329 0.15339 -0.62474 -0.12349 0.48442 0.46189 0.20564 -0.23841 -0.34008 0.32735 -0.20496 0.85945 1.3557 0.16899 0.13968 0.22548 0.33133 -0.73282 0.22108 0.9574 1.3472 -0.38037 0.12585 0.06769 -0.80209 -0.44661 -0.05667 -0.3609 -0.024811 0.047288 -0.51917 0.071216 -0.94914 0.58221 0.14549 0.32575 1.1389
ö -0.21688 1.6714 0.9739 -0.63313 -0.58247 0.62331 1.1029 -0.15028 -0.86802 -0.42406 0.16294 1.2091 0.37085 -0.80421 -0.36145 0.53381 -0.29817 -0.032045 0.92812 0.56254 -0.13278 0.10095 0.80929 0.73742 0.45756 0.21431 -0.62905 0.60484 0.68845 -1.3072 -0.90928 0.12357 0.45537 0.6038 0.11198 -1.029 1.2665 -1.962 -0.77787 -0.022181 1.2803 -0.61619 1.0167 -0.86539 0.22844 -0.53279 0.18174 0.20628 -0.36483 0.85388
= -1.5377 1.8869 1.2745 1.3661 0.38255 -0.086772 1.3353 -0.84042 -0.8163 -0.258 0.068995 0.16935 -0.57455 -0.57583 0.02947 -0.76549 0.54394 -0.6716 -1.5472 0.44699 -1.1218 -1.1254 1.2084 0.42863 -0.41768 0.58862 -0.061888 -0.63938 0.72687 -0.23623 2.5809 0.79495 0.17038 0.62493 -0.29273 -0.16096 1.1693 -1.0354 0.26318 0.55001 1.1703 -0.47919 0.27512 -0.007617 -0.57748 0.55455 0.37664 0.42944 1.1281 0.53025
o -0.043861 1.3183 -0.03715 0.85478 0.12212 -0.77384 0.259 -0.47676 -0.33695 0.48114 0.33945 1.33 0.2363 -0.40044 -0.060132 -0.090635 -0.13512 -0.24401 -0.29643 0.24748 -0.18947 -0.31269 0.81937 0.44263 0.31682 -0.32654 -1.0108 0.010322 0.23665 -0.87687 1.962 0.029588 -0.40542 1.2622 -0.26181 -0.85453 0.80293 -1.133 0.61904 0.68057 0.97585 -0.037231 -0.2541 -0.46952 0.05779 -0.14661 -0.15998 -0.86275 1.2377 0.87426
σ 0.18845 1.0676 0.08572 0.95112 1.1799 0.13043 2.9002 -0.45513 -0.79484 0.50502 0.7359 0.54501 -0.12304 -0.43735 0.15193 0.08 0.011511 0.026219 -0.26613 -0.57515 -0.71926 -1.0009 0.67798 0.26087 -0.76128 0.75413 -0.36269 0.94371 0.35346 -0.66031 0.64196 -0.11141 -0.58024 0.13466 -0.34127 -0.75756 1.7835 -1.5757 0.54559 0.85393 1.0034 -0.23384 -0.97236 0.53863 -1.1935 -0.15411 0.79196 0.12612 0.33584 0.44061
â 0.21615 0.72942 -0.48065 -0.74747 -0.21266 0.066294 0.90872 -0.34334 0.2324 -0.27395 -0.29133 1.2069 0.99158 -1.4067 0.27037 -0.50962 0.83107 0.57314 0.40857 -0.1207 -0.16829 -1.3431 0.42186 0.47755 0.051584 1.4076 0.0094992 0.84543 -0.3609 0.059723 -0.77891 -0.080387 0.96123 1.3182 -0.50393 0.069576 0.54266 -0.52382 -0.6133 -0.56303 1.2738 -0.87179 0.24635 0.233 -0.35596 -0.70772 -0.28488 0.46389 0.38634 0.30361
а -0.3282 1.2859 -0.12571 -0.74755 -0.41021 0.32813 1.3434 -0.32107 -0.9765 -0.080763 0.24791 -0.088594 0.42858 -0.046826 0.038864 -0.032353 -1.0606 0.7649 0.83681 0.78261 -0.41394 -0.021762 0.49059 0.40573 -0.22389 0.85332 -0.71052 0.56115 0.59479 1.2644 -0.729 -0.33903 -0.18345 0.54104 0.23321 0.20383 0.43919 -0.33954 0.16504 0.1053 1.0284 -0.77158 0.38852 -0.36996 0.38513 0.098657 0.42241 1.0588 0.33323 0.40358
⁰ -0.83422 0.083988 0.64164 -0.4836 -0.15951 -0.85283 0.77652 0.33585 -0.0061033 0.44406 -0.14859 0.71993 -0.34905 0.046589 -0.45671 0.10693 0.34557 -0.84033 0.031608 0.41322 -0.078469 0.6131 0.99597 0.43612 -0.22335 1.524 0.74956 -0.57594 -0.06506 0.54034 -1.5225 -0.060376 0.83615 0.78549 1.134 -0.78813 0.43368 -0.49831 0.017396 0.47416 0.17834 0.10175 0.38074 0.21809 -0.25198 -0.034382 0.58177 -0.26195 -0.42003 0.81289
2 -0.11098 0.86724 0.78114 0.62927 0.47444 0.56995 -0.036589 -0.36277 -0.75835 -0.23177 -0.033863 -0.13799 -0.27332 -0.49268 0.65304 -0.65874 -0.37598 -0.035175 -1.751 0.4251 0.27823 -0.70469 1.4309 0.47407 -0.7927 -0.59344 0.72797 -0.46763 0.42751 -0.54557 3.6055 0.3723 -0.49394 0.7213 0.38648 -0.12074 0.52277 0.11091 0.76881 -0.71368 0.73664 -0.5564 0.56538 -1.1565 -0.39394 1.3017 0.28281 -0.61752 0.59103 0.28649
l -0.2128 0.97449 1.0611 1.0138 0.1871 0.52351 0.64693 -1.8141 -0.84937 0.0016002 -0.080789 0.34376 -0.54837 -0.90324 -0.10357 -0.63059 -0.4659 0.73256 -0.4402 -0.38592 -0.69467 -1.0421 -0.021517 0.15874 -0.1732 0.32181 0.33538 -0.13344 -0.21355 0.3963 2.222 0.2807 0.013912 0.8938 -0.10881 -0.45204 0.3805 -1.063 0.45368 0.14889 0.98727 -0.40812 -0.53156 -0.25559 0.00027651 0.71213 0.41485 0.28168 0.76531 0.7902
¢ -1.5933 1.1767 1.2838 -1.2854 0.29476 0.47286 1.0876 -1.3009 0.08881 0.24644 -0.88233 0.31762 1.6627 -0.5967 0.36621 -0.70913 -0.87187 -0.10736 -0.46899 0.87975 0.8705 -1.6115 1.3786 -0.33042 -0.090899 -0.069041 -0.75057 -0.24849 1.3186 -0.53452 -0.38438 0.99079 0.26765 1.5811 0.00089185 -0.055924 1.3861 -0.20576 -0.20438 0.16473 0.96015 -0.40548 0.84151 -0.29585 -0.093415 0.4492 -0.24464 0.45684 0.80702 0.6519
χ 0.40429 0.96301 -0.18734 1.0646 1.3846 0.60037 2.0641 0.1093 -0.36551 -0.1427 1.2203 1.4953 0.24088 -0.79745 -0.048072 -0.17032 0.17819 0.56117 0.31933 0.70823 -1.4473 -0.24847 0.66338 0.26896 0.46907 1.2011 0.40433 -0.16824 -0.0073589 -0.26021 0.19203 0.59135 0.36336 -0.20902 -0.19843 0.68802 1.1971 -1.0057 0.55799 0.44544 0.61147 -0.0039313 -1.2944 -0.39701 -0.02009 0.013046 0.12643 -0.082273 0.68038 0.90296
¤ -1.1415 0.35794 0.096667 -0.4488 -0.35213 -0.84807 -0.02116 -0.26299 0.13736 -0.41463 0.028188 0.67738 0.81935 0.078366 0.36423 0.21031 -0.76385 -0.47366 0.45781 1.1404 -0.50863 -0.92609 0.21374 0.35505 0.027646 1.0898 1.3928 0.049761 0.88533 0.53911 -1.1597 0.38152 -0.0014653 0.39767 -0.36402 0.52571 0.12956 -0.77707 -0.18616 -0.039325 0.049113 -0.53989 -0.42685 0.5432 0.098303 -0.3824 0.65114 0.095805 0.82338 0.43742
œ -0.23556 -0.21654 0.20552 -0.96892 -0.82673 -0.13455 0.69469 -0.48883 0.26711 -0.28053 0.24788 1.1572 0.57654 -0.037751 -0.43275 -0.45143 0.13153 -0.039901 0.48321 -0.28636 -0.52394 -0.50405 0.53986 0.24868 0.50218 1.4676 -0.20932 0.46633 0.23973 -0.53682 -1.0244 -0.29433 0.87692 0.055889 -0.22816 0.92512 0.84685 -0.92393 -0.52903 -0.18392 0.75671 -0.78905 0.76094 -0.48589 1.4507 -0.12004 0.34257 -0.082543 0.8024 0.1476
⅓ -0.61883 0.34763 0.64936 -0.3662 -0.020676 0.89324 0.92446 0.42063 -0.2427 0.54089 -0.67962 -0.66078 -0.72324 0.023241 0.025086 -2.2573 0.044401 0.34557 -0.014696 0.21351 -0.38488 -0.17953 1.1021 -0.16839 -0.024474 2.072 0.93734 -0.52964 1.3958 0.3775 1.1892 -0.50396 0.74648 1.7839 -0.54825 0.23478 0.62517 0.26115 0.39864 0.80068 0.67408 -1.4436 -0.26874 0.53887 -1.0227 0.05043 0.1452 0.085961 -1.4117 0.37406
ï -0.39127 -0.22842 -0.0050637 -1.4265 -1.2925 -0.40437 0.69454 -0.17556 -0.16721 -0.76138 -0.33875 0.59087 0.0060491 0.18143 -0.16295 0.072637 -0.055527 0.52587 1.3883 0.44609 -0.66607 0.20724 0.3793 0.20189 -0.30946 1.3087 -0.11272 0.5554 0.10942 0.12998 -0.65259 -0.17968 0.44363 0.70187 -0.60165 0.46238 1.169 -0.9069 0.15907 0.39275 -0.54288 -0.64394 0.15167 0.21589 0.25408 -0.46796 -0.45483 -0.13186 -0.054863 1.194
⅛ -0.078094 1.6799 1.1899 0.22294 0.021835 -0.35331 0.84637 0.37743 0.30542 -0.47289 -0.68672 -0.41239 0.8688 -1.2612 -0.89881 -0.58092 -0.3527 1.0682 -0.59316 -0.1223 -0.1351 -0.70269 0.89152 0.44691 0.25509 0.5208 0.85225 1.0978 1.7401 -0.24529 0.068402 0.15923 -0.35762 1.5613 0.477 -0.84868 -0.49884 0.086268 -0.64452 0.053218 1.4029 -0.90435 0.52888 -0.22981 -2.2335 0.44299 0.90211 0.070527 -0.35038 -0.46628
п -0.73688 0.25352 1.1199 -0.12326 -0.24703 -0.62182 0.54874 -0.58421 -0.88472 -0.44157 0.0036164 0.67918 0.40276 0.52702 0.6773 0.0043668 -1.7692 0.16056 1.0551 0.6205 -0.092417 -0.28886 0.11452 0.49464 0.57091 1.0897 -0.55952 -0.29597 0.71748 0.25199 -1.2035 -0.42832 -0.15389 0.42202 -0.48436 0.19865 0.29078 -1.0624 0.0693 0.37026 0.65494 -0.5094 0.21554 0.18827 0.14937 -0.19442 0.94199 0.59047 0.51011 0.83609
¾ -0.38322 1.1397 0.58344 0.012951 0.40373 0.55426 1.0931 -0.44753 -0.23001 -0.83648 -0.8646 -0.73766 -0.099631 -0.54396 0.03499 -0.52416 -0.069313 0.69511 -1.3607 -0.040201 0.24215 -0.10097 1.8071 0.18929 -0.21334 0.99171 0.88692 1.2615 1.1342 0.427 0.52972 -0.37023 -0.29336 1.9941 0.19152 -0.48201 -0.31544 0.39092 0.16376 -0.63342 1.3213 -1.1221 0.63523 -0.33637 -0.74535 0.27969 1.1604 -0.095059 -0.10063 -0.21729
” -0.19668 0.91876 -0.71808 -0.40699 0.353 0.061314 0.14639 -0.61919 -0.11176 0.25141 0.31081 0.72756 0.057749 -0.25208 0.022421 -0.42175 0.39322 0.32278 -0.099284 0.083125 -0.094814 -0.029779 0.29236 0.26209 0.52086 -0.8346 -1.3667 -0.24686 0.2622 -0.35519 2.865 -0.60878 -0.4143 -0.54828 -0.64488 0.018312 0.38923 -0.33733 0.11398 0.22527 0.4217 -0.68052 -0.16737 -0.16475 -0.25079 -0.13634 0.017934 -0.63774 0.40169 0.44086
₤ 0.011152 0.097118 0.78462 -1.0135 0.25279 -0.079726 0.51514 0.19149 -0.26703 -0.015669 -0.47754 -0.23549 0.96861 -1.7546 1.0293 -0.58688 0.25067 1.0123 -0.87434 -0.57322 1.44 -0.26769 -0.50981 -0.70133 0.33199 0.66017 0.44431 -0.55888 -0.19584 0.52297 -0.13187 0.42221 0.44236 1.3119 -0.040781 0.083441 0.7279 0.063036 -0.057979 -0.7206 1.1124 -0.46237 0.18229 0.49923 -1.1385 -0.71567 -0.35358 0.31484 -0.42293 -0.31577
č -0.83594 -0.084479 0.40108 -0.16485 -0.83132 0.71209 0.77658 -1.305 0.23337 0.076114 0.18702 0.98896 0.20364 -0.27631 -0.7502 0.0020954 -0.35037 -0.087598 0.85163 0.093012 0.097108 0.057484 1.0658 0.8162 0.29175 1.1072 -0.78199 0.0063616 0.24142 -0.24857 -0.75335 0.71595 0.74985 0.82822 -0.4165 -0.21743 0.33986 -1.5614 -0.29676 0.44821 0.84458 -0.20077 0.27816 -0.88196 1.418 0.77242 -0.17261 0.073987 0.8283 0.49335
ϕ 0.24069 0.47576 0.49837 0.23846 -0.53867 -0.243 1.1752 0.37773 0.83211 -0.07029 -0.093303 0.50296 0.57222 -0.50897 0.44183 -0.43453 1.12 1.3201 -0.73094 0.1199 -0.70833 -1.3141 0.55685 0.86897 0.31112 1.043 0.10373 0.11653 0.34825 -0.062874 -1.1162 0.46742 -0.030804 -0.49524 -0.57327 0.24573 0.13711 -1.3941 0.52612 -0.11835 -0.041499 -0.43499 -0.7805 -0.21795 0.01379 -0.40805 0.42595 -0.22169 0.70981 1.3121
乡 -1.0114 0.67436 0.3727 0.51717 -0.91107 0.047992 0.94489 -0.56289 -0.18919 -1.19 -0.081751 0.33416 0.714 -0.97901 -0.030907 0.34857 0.6378 0.43094 0.5664 0.54415 -1.3357 -0.16032 0.60139 0.4743 0.81632 2.2185 0.50772 -0.47284 -1.2998 -0.79464 -1.5761 -0.0090883 0.43686 0.96164 -0.1708 -0.18977 -0.08041 -1.4109 0.36569 0.23065 -0.025021 -0.38568 0.25818 -0.48424 -0.41205 -0.22836 0.95949 -0.87112 -0.46559 0.11611
β 0.63661 1.1963 0.74992 0.34333 1.1591 -0.19252 2.1855 -0.062369 -0.69233 0.85038 1.3685 0.28058 -0.06168 0.92968 -0.34781 0.6295 -0.21252 -0.41142 0.25755 0.50533 -0.92855 -1.2235 1.2313 1.203 -0.89975 1.2431 -0.78584 0.5513 0.030334 -0.30703 1.1049 0.28225 0.62787 0.41756 -0.10708 -0.45798 0.91458 -1.1164 1.0929 0.87669 0.69382 -0.63221 -0.35982 -0.0044891 -0.84106 0.036315 0.75408 0.16675 0.14786 0.37957
¿ -0.55967 0.91458 -0.18434 -0.99487 -0.92501 0.16824 -0.29654 -0.87179 -0.69826 1.3687 0.50534 0.51124 0.41798 -0.40252 1.3651 -0.08276 0.072642 0.76103 1.0732 0.8862 -1.3096 -0.5206 0.19289 0.99115 0.39971 0.52406 -0.93711 0.83885 0.81529 -0.96793 -0.46847 0.23854 -1.1435 1.0188 -0.48976 -0.6417 1.199 -1.2062 0.71084 -0.10223 -0.12426 -0.99052 -0.49876 -0.18052 -0.73284 -1.1849 0.074402 0.30772 1.2319 0.9656
མ -0.86619 1.1119 -0.43091 0.078284 0.11674 -0.22473 0.99088 -0.56167 0.094017 0.31018 -0.86596 -0.32156 1.5718 0.062679 0.67481 -0.50647 0.96859 -0.25794 0.93354 0.57126 -1.0246 -0.0082464 -0.099709 1.5987 1.0953 1.3884 0.29114 -0.23562 0.61466 -0.23331 -0.62143 -0.7536 -0.4235 -0.0057689 -1.0143 0.57092 0.073742 -0.93897 -0.03859 0.33657 0.43135 -0.00096811 0.95235 0.30757 0.7297 1.2363 0.87254 0.81136 0.6768 0.26284
- -0.16768 1.2151 0.49515 0.26836 -0.4585 -0.23311 -0.52822 -1.3557 0.16098 0.37691 -0.92702 -0.43904 -1.0634 1.028 0.0053943 0.04153 -0.018638 -0.55451 0.026166 0.28066 -0.66245 0.23435 0.2451 0.025668 -1.0869 -2.844 -0.51272 0.27286 0.0071502 0.033984 3.9084 0.52766 -0.66899 1.8238 0.43436 -0.30084 -0.26996 0.4394 0.69956 0.14885 0.029453 1.4888 0.52361 0.099354 1.2515 0.099381 -0.079261 -0.30862 0.30893 0.11023
w -0.9432 1.6448 1.202 1.1443 -0.063614 -0.18644 0.70952 -1.3699 -0.14877 -0.88396 -0.89586 0.29615 -0.81383 -0.50923 -0.60819 -0.27781 -0.48124 -0.40438 -0.67217 -0.2313 -0.33605 -0.28147 0.84505 0.5649 -0.40805 0.11466 -0.44223 -0.32007 0.3346 -0.10013 1.6 0.18561 0.083402 0.37515 -0.24304 -0.60288 0.75821 -0.73461 0.13199 0.34799 1.615 -0.099319 0.17324 0.20094 -0.17229 1.023 0.086289 -0.64792 0.65643 1.1344
ר -1.3996 1.0017 0.39295 -0.26087 0.59423 -0.51066 0.73878 -0.58944 -0.77029 0.24428 -0.27864 0.21853 0.078761 0.22839 -0.57196 -0.76242 -0.24767 0.18599 0.77512 0.81376 -1.194 -0.37847 1.5036 0.73088 -0.55495 1.5315 -0.5461 0.52749 1.2323 0.11298 -0.87292 -0.29839 -0.12521 1.2507 -0.66927 -0.42965 -0.19412 -0.45095 0.73371 0.3548 1.1818 -1.5519 -0.17429 0.84014 0.42816 0.30052 0.57211 0.98327 0.18403 0.81058
[ -0.61201 0.98226 0.11539 0.014623 0.23873 -0.067035 0.30632 -0.64742 -0.38517 -0.03691 0.094788 0.57631 -0.091557 -0.54825 0.25255 -0.14759 0.13023 0.21658 -0.30623 0.30028 -0.23471 -0.17927 0.9518 0.54258 0.31172 -0.51038 -0.65223 -0.48858 0.13486 -0.40132 2.493 -0.38777 -0.26456 -0.49414 -0.3871 -0.20983 0.82941 -0.46253 0.39549 0.014881 0.79485 -0.79958 -0.16243 0.013862 -0.53536 0.52536 0.019818 -0.16353 0.30649 0.81745
ø -0.85336 1.0524 -0.20222 -0.19 -0.61423 1.2649 0.8365 -0.79725 0.10497 -0.80005 -0.38443 0.39188 -0.17704 -0.38913 -0.88893 0.7379 1.1709 -0.61923 0.52386 1.0566 -0.32265 0.38112 0.76403 -0.37005 -0.12809 1.5441 -0.67383 0.86511 2.1508 -0.66978 -0.1509 -0.47677 -0.39042 1.6275 -0.51145 0.45186 0.68721 -1.4546 0.0024897 1.3164 1.1381 -0.50677 0.43735 -0.57192 -0.45104 0.12098 0.045781 0.41714 -0.45438 -0.37207
བ -1.2073 1.2338 -0.10883 -0.002275 -0.30998 -0.70939 0.51543 -0.42798 -0.085154 0.4106 -0.66365 -0.13811 1.3715 -0.097063 1.169 -0.5812 0.37252 -0.25998 0.80108 0.7847 -0.82386 0.42246 -0.11885 1.5448 1.1278 1.1152 0.054998 -0.42251 0.57247 -0.50554 -1.2126 -0.33385 -0.55142 0.10809 -0.93931 0.25139 -0.2487 -1.4503 0.45011 0.54354 0.45482 0.31395 1.2586 -0.35014 0.64533 1.3471 1.0494 0.743 0.31013 0.089807
ས -1.1665 1.5111 -0.093641 0.27646 0.20659 -0.23269 0.72131 -0.85355 0.56276 0.12237 -1.1292 -0.11731 1.8884 -0.25598 1.1763 -0.1004 1.2984 -0.30522 1.4734 0.66693 -1.1056 -0.20119 -0.86064 2.233 0.95795 1.1079 0.43753 -0.27103 0.74817 -0.72815 -0.54805 -1.1877 -1.0789 0.33526 -0.77772 0.74615 0.41234 -1.7229 0.94034 0.52109 0.4214 0.73421 0.76705 0.14378 0.67036 1.4401 1.1407 0.50501 0.9564 0.31473
ā -0.35519 1.8429 -0.29839 -1.3109 -1.4588 -0.41719 0.71733 -0.53383 -0.14978 0.030801 -0.44559 1.0889 -0.17112 0.18608 -0.81432 -0.29835 0.06052 -0.21993 1.1463 1.2727 -1.653 -0.40869 0.29995 0.82372 0.39211 0.93296 -0.01048 0.76185 0.44655 0.061264 0.33781 0.27461 0.97521 1.0541 -0.28793 0.17131 0.57493 -0.96537 -0.15577 0.29584 0.17447 -0.74133 0.20446 0.38029 0.13576 -0.29468 0.30228 0.186 0.64734 0.55331
ಶ -0.53046 0.26605 -0.26389 0.57749 -0.39917 -1.2433 0.82727 -0.49321 -0.30534 0.5876 -0.79471 -0.077117 1.8291 0.52051 1.5153 -0.13603 0.45393 0.19781 0.17533 0.89627 -1.1525 -0.67571 0.26398 1.7911 0.94533 1.2431 -0.31727 -0.48763 -0.17429 0.080342 -0.95364 -0.58659 -0.54033 0.055515 0.1261 0.99761 -0.042466 -0.23807 -0.77238 -0.91939 0.46274 0.5374 0.80001 0.23337 -0.18676 1.7159 1.0124 0.33635 1.0174 0.071061
„ -0.27783 0.87566 -0.16024 -0.61841 -0.46772 -0.14706 0.55398 -0.44843 -0.32376 0.26522 0.28914 0.35318 0.020854 -0.039273 0.19244 -0.41493 0.70731 0.73987 0.22835 1.0811 0.032001 -0.90585 0.43044 0.75229 0.32432 0.24787 -1.5101 -0.19587 -0.34109 -0.35157 0.14279 -0.4168 -0.299 0.29675 -1.1996 0.12243 0.50348 -0.0098186 0.71304 0.18149 0.6617 -1.087 -0.43012 -0.36324 0.089039 -0.25722 0.32485 -0.12604 0.44009 0.41345
ದ -0.90109 0.020595 -0.14027 -0.0027228 -0.61512 -1.1927 1.181 -0.7588 -0.12695 0.32804 -0.66623 -0.26814 1.5396 0.48316 1.1582 0.033989 0.59082 0.17853 0.58857 1.0228 -1.1601 -0.57339 0.12874 2.0712 0.65115 1.0764 -0.19358 -0.20006 0.053906 0.49656 -0.83202 -1.1214 -0.35752 0.27492 0.16195 0.91993 0.08729 -0.10754 -0.42329 -0.74829 0.78088 0.83208 0.78378 0.23534 -0.46303 0.89316 1.2937 0.074889 1.1892 0.60618
‹ -0.78759 0.77158 0.56878 0.4783 0.48762 -0.12113 0.77348 0.37956 -0.60234 0.46683 0.069787 0.62544 0.60776 0.3126 -0.25123 -0.73071 -1.2386 -0.49858 0.61605 -0.96452 -0.24631 -0.5186 0.31089 0.87336 -0.47332 0.82955 0.073719 0.14055 0.090375 0.07537 -2.0416 -0.26646 0.16425 0.34396 0.35042 -0.99895 0.064716 -0.34597 -1.1499 0.0072341 1.7907 0.042224 0.31192 0.58996 -0.0061379 -0.11507 -0.273 -0.099724 -0.11097 0.43461
‟ -0.12716 0.96156 0.96515 0.6584 0.098188 -0.12543 1.2544 0.19769 0.53468 -0.39374 -0.40944 0.15512 -0.14172 0.045666 -0.56966 -0.030979 -0.51808 0.27982 0.63391 0.46326 -0.74655 0.23003 -1.0127 0.96245 0.1979 0.32498 -0.65005 -0.13531 -0.1819 0.86799 -1.4798 0.52608 0.51054 0.86931 0.25963 -0.52321 -0.24402 -1.6873 -0.22504 -0.83525 0.32184 -0.12899 0.36699 -0.1388 -0.013173 0.66573 0.63525 0.029571 0.70995 0.41899
c -0.48882 0.48228 0.45726 0.89723 0.84066 0.25832 0.587 -1.1499 0.15777 0.54993 0.76083 0.89797 -0.41365 -0.37741 -0.43394 0.48954 -0.12724 -0.62417 -1.3724 -0.14327 0.0040979 0.35776 1.3698 0.2507 -0.41694 0.23011 1.0733 -0.68359 -0.27213 0.43046 2.7213 -0.35617 0.58463 0.94392 1.2077 -1.0876 1.0879 -0.12732 0.52957 0.48666 0.91474 0.4191 0.23457 0.30505 -0.63742 1.001 0.20878 -0.51351 0.38353 0.84917
ƒ 0.94068 0.23031 0.92052 0.25256 1.4312 -1.083 2.7244 -0.63514 0.16152 0.34869 0.31693 0.8073 -1.1284 -0.75392 -0.066765 -0.080618 0.15605 -0.28593 0.18966 0.27709 -0.75283 -0.74996 1.068 0.11487 -0.40344 1.5098 -0.10357 0.41984 0.71457 0.075227 0.53887 -0.66929 -0.79945 -0.53342 -0.72577 -0.71553 1.4875 -0.65908 0.21817 0.40181 1.0038 -1.0523 -1.3958 0.81189 -1.7072 -0.35901 0.87967 -0.47384 0.25732 1.2224
ο -0.82776 1.5347 0.050459 -0.28005 0.77947 -0.44353 1.292 0.19077 -0.3032 -0.14448 0.36051 1.4612 1.4785 0.55438 -0.41891 -0.44777 0.028742 1.2618 0.64768 1.238 -0.60886 -0.72036 0.62442 0.36802 0.94201 0.64465 0.29178 0.36153 -0.012647 -0.21205 -0.33606 0.3048 0.72159 0.90114 -0.88358 0.62306 0.48158 -0.69549 0.27241 0.33395 1.3627 -0.28005 -0.019519 -0.37855 -0.75698 1.1046 -0.30819 1.7042 0.001495 0.45059
‚ -0.61249 -0.32134 -0.44058 -0.4536 -0.37559 0.10314 0.1034 -0.37386 -0.31858 0.41253 -0.20743 0.24143 0.69529 -0.2477 -0.13477 -0.73557 0.46222 0.32431 0.28013 0.35791 -0.059849 0.17377 0.25094 -0.091039 0.70775 1.7008 0.5394 0.28117 0.20616 -0.31359 -1.0838 0.68228 0.04012 0.69864 -0.30834 0.45635 0.70574 -0.31773 0.007351 0.58042 -0.016116 -0.68533 -0.28623 0.16367 -0.64447 0.19435 -0.37332 0.58301 0.94236 -0.45939
τ 0.35283 1.6636 0.10155 0.76068 0.25228 -0.70646 2.3227 0.31953 -0.011139 0.42471 0.86063 0.68029 -0.24717 -0.35396 0.39092 0.17213 -0.085136 0.53146 -0.1485 0.62957 -0.69749 -0.71913 0.66949 0.81693 -0.16102 0.94631 0.23019 0.39958 0.3958 -0.17446 0.1548 0.49669 -0.066289 -0.087801 -0.69326 -0.3747 1.4246 -0.84566 0.66166 0.84533 0.91298 -0.51542 -1.0955 0.91034 -1.2066 -0.4786 0.78637 -0.14154 0.096387 0.90816
þ -1.1456 0.80268 -0.15314 0.023026 -0.33093 -0.17346 0.4706 -0.206 -0.26196 -0.96202 0.057797 1.4699 0.74304 -0.57163 -0.76281 -0.24641 0.0098142 0.6414 0.67491 0.38213 -0.67647 -0.27296 0.92926 -0.63273 -0.044275 1.1016 -0.0037218 0.66599 -0.3111 -0.37193 -0.85079 -0.52881 -0.05326 0.86504 -0.7594 0.4078 0.37666 -1.395 0.056093 -0.21432 1.2184 -0.94413 -0.60669 -0.012919 0.28244 0.23 -0.25472 0.80408 -0.40517 -0.23661
ъ -0.43685 0.61294 0.021951 -0.57038 -0.99619 -0.27099 0.92273 0.39981 -0.00087899 -0.16594 -0.012544 1.248 0.62795 -0.31614 -0.23525 -0.46782 -0.142 0.36422 1.3335 0.11147 -0.69698 -0.11734 0.20687 -0.054355 0.28016 0.65529 0.55669 0.66652 0.062751 -1.2019 -0.62247 0.53811 0.09948 0.88658 -1.0549 0.8942 0.24314 -1.3728 -0.12053 -0.62376 1.111 -0.30267 0.317 -0.91445 0.93439 -0.47384 0.2086 0.24383 -0.34169 0.09756
? -0.14578 0.50459 0.047525 -0.46463 0.44249 -0.16772 -0.40334 -0.39223 -0.41543 0.27637 -0.63027 0.69033 -0.45441 0.0015845 1.312 0.52413 0.3738 0.28156 -0.0040563 -0.52664 -0.57061 0.36561 0.59174 0.34713 0.45009 -2.1454 -1.3795 0.307 1.4876 -0.96313 2.8403 0.50247 -0.86752 0.06413 -0.36376 -0.14019 0.11975 -0.045442 0.72682 -0.44447 -0.27226 0.1503 0.11489 0.71237 0.11341 0.22835 -0.040801 -0.41468 0.11054 1.1681
ñ 0.55395 0.5258 0.081504 -0.63784 -0.31506 -0.17408 0.31557 -0.31642 -0.42371 0.46874 0.19024 1.3888 1.1456 0.61778 -0.020118 -0.32727 -0.71886 0.10548 0.41444 -0.069617 -0.66029 -0.30488 0.84736 0.71685 -0.0040395 0.86499 -0.35794 0.5353 0.1241 -0.09814 -1.0844 0.096474 -0.62272 0.55431 0.13863 -0.51536 0.15138 -1.5503 -0.21543 -0.2452 0.71167 -0.092027 0.20469 -0.32551 0.06526 0.54636 0.19158 0.36907 0.32401 0.44888
ಕ -1.0728 -0.209 -0.29713 0.17857 -0.72871 -0.97217 1.4394 -0.53783 0.032058 0.33904 -0.86933 -0.23359 1.8026 0.28655 1.2187 0.18624 0.82999 0.84582 0.51628 0.88597 -0.61929 -0.7134 0.11688 2.0373 0.6891 0.64772 -0.57033 -0.026016 0.017102 -0.015289 -0.82061 -1.076 -0.41352 0.73789 0.24441 0.99932 0.18789 -0.17436 -0.20934 -1.0639 0.89498 0.79822 0.63704 -0.088491 -0.39685 1.4185 1.2666 0.15448 1.1093 0.64934
' -0.039369 1.2036 0.35401 -0.55999 -0.52078 -0.66988 -0.75417 -0.6534 -0.23246 0.58686 -0.40797 1.2057 -1.11 0.51235 0.1246 0.05306 0.61041 -1.1295 -0.11834 0.26311 -0.72112 -0.079739 0.75497 -0.023356 -0.56079 -2.1037 -1.8793 -0.179 -0.14498 -0.63742 3.181 0.93412 -0.6183 0.58116 0.58956 -0.19806 0.42181 -0.85674 0.33207 0.020538 -0.60141 0.50403 -0.083316 0.20239 0.443 -0.060769 -0.42807 -0.084135 0.49164 0.085654
@ -1.5993 1.0154 0.86823 0.74326 -0.6387 -1.0276 0.6273 -0.19981 0.21437 -0.23789 -0.60481 -0.028558 -0.25056 -0.62944 0.49194 -0.26032 -0.4207 0.80134 0.012986 0.0038731 -0.54705 0.043031 1.2715 0.41507 0.86101 0.36552 -0.42333 -0.68 0.13677 0.096228 0.53612 0.18014 0.034983 0.77129 -0.37779 -0.41807 0.12283 0.099988 0.10874 0.083569 0.60652 -0.67219 -0.094889 0.51864 -0.29333 0.75998 0.039111 -0.54009 -0.37374 0.60712
ū -0.25787 0.92837 -1.0752 -0.4273 -1.1931 -0.98668 1.1507 -0.17667 0.051981 -0.15856 -0.33415 1.0758 0.45127 -0.28184 -1.7055 -0.1573 0.33848 0.27373 1.0707 1.3296 -0.6388 0.49235 0.66371 0.54553 0.16546 1.2131 -0.51147 -0.057577 0.63607 0.35044 0.5503 -0.012119 0.52119 1.4023 -0.0034378 0.14951 0.40257 -1.0899 -0.086295 0.11935 0.26105 -1.1422 0.29115 -0.11832 0.84665 -0.47878 0.20023 -0.55467 0.41165 0.9526
å 0.25845 1.2611 0.98235 0.28113 0.73722 0.6931 1.5055 -0.56132 -0.43293 -0.3666 0.40385 0.655 0.22491 -0.26438 -0.394 0.35879 -0.063402 -0.55331 -0.65276 0.36219 0.17257 -0.51459 0.92684 0.59538 0.3652 0.71829 0.33474 0.51033 0.23665 -0.61309 -0.35616 -0.42099 0.87225 0.82652 0.29507 -1.4879 0.59833 -1.1099 -0.63111 0.78534 1.3889 -0.40006 1.3977 -0.096967 -1.0843 -0.88206 0.97673 0.31304 0.022009 0.59272
p -0.35559 1.2386 1.4348 1.0447 1.0335 0.10445 0.2776 -1.2675 -0.95788 -0.59603 -0.1828 -0.018247 -0.93553 -0.49706 0.0085845 0.86971 -0.3525 -0.17587 -0.67203 -0.49188 4.9252e-05 0.19287 1.2353 0.71928 -0.37632 0.60005 -0.21616 0.26368 0.37403 0.85283 2.2797 -0.29896 0.11625 0.79111 0.57041 -1.6061 -0.020628 -1.1018 1.2016 0.28124 0.4469 -0.58974 -0.3177 0.49358 -0.3829 0.33543 0.70644 0.16022 1.1328 0.69397
ನ -0.61529 -0.24239 -0.074208 0.25912 -0.49007 -1.2665 1.119 -0.70003 -0.40198 0.03776 -0.63294 -0.10419 1.669 0.86694 1.4644 0.25817 0.53871 0.10975 0.73385 0.85273 -1.1541 -1.0642 0.30979 1.6906 0.89736 0.87683 -0.1888 0.098688 -0.16864 0.21189 -1.0525 -1.0955 -0.53623 0.19322 -0.15258 0.90025 -0.048498 0.45909 -0.21037 -0.60336 0.44628 0.77649 0.90696 0.58807 -0.867 0.87585 1.4069 0.51228 1.106 0.28911
đ 0.34635 -0.67153 -0.036522 -0.51648 -0.44147 -0.61707 1.355 -0.36607 -0.41433 0.68792 0.29544 0.49414 0.10062 -0.20247 0.35748 -0.68153 -0.28381 0.40135 0.74939 0.08197 -0.4192 -0.54849 0.50284 0.35824 0.41619 1.057 0.0064232 0.6981 -0.27217 -0.26521 -1.1636 -0.14764 0.030086 0.38674 -0.84928 -0.16981 0.84398 -0.23937 -0.52065 -0.078161 0.97713 -0.85902 0.3915 -0.71146 0.98183 0.20018 0.19005 0.83615 0.75458 0.70103
⅝ 0.099094 1.0244 0.69347 -0.4579 -0.38357 0.18645 0.87057 -0.1211 0.37942 -0.69887 -0.67173 -0.71311 0.6563 0.35286 0.026569 -0.87679 -0.39754 -0.24722 -0.18509 0.81339 -0.70327 -1.0947 1.1828 0.093553 -0.2543 1.4691 0.47339 1.0274 1.6764 -0.14681 -0.54193 -0.72934 -0.1531 0.99966 -0.26681 0.21149 -0.15278 0.2941 0.20987 -0.087803 0.63029 -0.88847 1.258 -0.98083 -0.98776 -0.21461 1.2743 -0.54131 -0.055407 0.59489
, 0.013441 0.23682 -0.16899 0.40951 0.63812 0.47709 -0.42852 -0.55641 -0.364 -0.23938 0.13001 -0.063734 -0.39575 -0.48162 0.23291 0.090201 -0.13324 0.078639 -0.41634 -0.15428 0.10068 0.48891 0.31226 -0.1252 -0.037512 -1.5179 0.12612 -0.02442 -0.042961 -0.28351 3.5416 -0.11956 -0.014533 -0.1499 0.21864 -0.33412 -0.13872 0.31806 0.70358 0.44858 -0.080262 0.63003 0.32111 -0.46765 0.22786 0.36034 -0.37818 -0.56657 0.044691 0.30392
ད -0.92302 0.98496 -0.12258 0.23623 -0.021896 -0.30105 0.76682 -0.7053 0.61835 0.24016 -0.56959 -0.27485 1.5157 0.11329 0.79526 -0.15199 1.0672 -0.041925 0.79557 0.7831 -1.2504 -0.14271 -0.24597 1.5824 1.1658 1.3186 0.58153 0.097464 0.60631 -0.60888 -0.56307 -0.80729 -0.25862 -0.077588 -1.1256 0.40837 0.30148 -1.3308 0.20791 0.23274 -0.019114 -0.17959 0.81239 0.29917 0.65325 0.85297 1.079 0.76674 0.69527 0.27994
’ -0.29116 1.1764 -0.20424 -0.69068 -0.034111 -0.3868 0.04969 -0.62443 -0.20375 0.22167 0.15405 1.0712 0.094855 -0.46726 -0.47924 -0.38604 0.40229 -0.089674 0.014111 0.3255 -0.033905 -0.12905 0.6949 0.32565 0.12294 -0.34093 -1.4063 -1.1097 -0.35393 -0.28798 2.6004 0.14254 -0.2134 -0.30458 0.23896 0.039572 0.63943 -0.6433 0.21753 0.26183 0.20199 -0.66046 -0.088801 0.24996 -0.017453 -0.035453 -0.27004 -0.58471 0.64289 0.15782
ව -1.1372 -0.063515 -0.27734 -0.80371 0.15193 -0.78906 1.0456 -0.23682 -0.62736 0.31625 -0.72659 -0.091736 1.2312 -0.039693 0.82923 -0.097205 0.37029 0.40659 0.19574 1.6726 -1.3377 0.2235 -0.083572 1.7887 0.53393 0.85472 0.24692 -0.63311 0.7772 1.0011 -0.84246 -0.1309 -0.83937 0.55576 -0.56524 0.32777 -0.3988 -1.4627 -0.4899 -1.2686 0.49965 -0.54222 0.26629 0.82798 -0.83029 1.6685 0.7419 1.2483 0.74806 0.3287
б -1.0319 0.21479 -0.58235 -0.75741 -0.43708 0.30014 1.194 0.17243 -0.34659 -0.030422 0.45113 0.42932 1.0952 0.34646 0.37097 0.018734 -0.103 0.048325 1.0268 0.45394 -0.86887 0.069314 0.97992 1.0951 0.19235 1.5989 -0.15957 0.048036 0.31527 0.74023 -0.8766 -0.53383 -0.061393 0.49689 0.23344 0.39201 0.6369 -0.47295 -0.18032 -0.40267 0.5364 -0.68834 0.81064 -0.28335 0.087496 0.33231 0.49766 0.60932 0.49259 0.62825
λ 0.7146 1.1731 0.77387 0.41997 1.3305 -0.39252 2.9254 -0.73526 -0.77276 0.43361 1.0453 -0.0061015 -0.13153 -0.56703 0.33017 -0.0082702 -0.14743 0.22789 -0.16104 -0.33817 -1.4616 -1.6846 0.92098 0.84883 -0.48718 0.61369 -0.44445 0.5874 -0.15626 0.024941 0.85333 0.79616 -0.11917 -0.019002 -0.90759 -0.97113 0.70462 -0.57121 0.26317 0.83384 1.4604 0.23527 -0.97152 0.43156 -1.1606 -0.32892 1.0304 0.27541 0.015162 0.93069
/ -0.49935 1.4759 0.89591 0.8648 -0.71297 -0.056885 0.14008 -1.8179 -0.24648 -0.46137 0.098274 0.026427 -0.72151 -0.64991 0.36402 0.012256 -0.46271 0.19625 -0.31478 0.5245 -0.56099 0.68332 0.4585 0.65419 -0.18224 -0.4645 -0.41657 -0.61701 -0.52379 -0.34511 2.9272 0.66171 -0.35678 0.74526 -0.35781 -0.063607 0.79616 -1.298 1.1285 -0.29331 1.5747 0.16061 0.67424 -0.95333 0.63884 0.4949 0.60275 0.068522 0.67729 0.71499
一 -0.31254 0.070214 0.028422 -0.22204 -0.60586 0.12141 1.1113 0.066485 -0.26746 0.026299 -0.11107 0.96681 0.69516 1.1565 0.047399 -0.55441 0.63033 0.37223 0.10063 0.60667 -0.94328 -0.80116 0.19024 0.52461 1.0363 1.0757 -0.19069 -0.42477 -0.28383 -0.49093 -0.88712 0.20179 0.68796 1.4869 -0.76425 0.49083 -0.096846 -0.70988 -0.13259 0.038251 -0.098338 -0.16072 0.38458 0.31187 0.42158 -0.37582 0.6787 0.23851 0.31256 0.33
~ -0.35974 0.94839 1.0537 -0.046985 0.41969 0.063421 1.3793 -0.94921 -0.3331 0.24266 0.31988 -0.25937 0.18134 -0.52812 0.5287 -0.083691 -0.14416 0.76036 -0.99198 0.017798 -0.13585 -0.24684 1.2516 0.18319 -0.14066 1.0662 -0.80727 -0.22267 0.38443 0.021641 1.4013 -0.24161 0.11391 0.90836 -0.13271 -1.0249 0.6464 -1.4115 0.85492 0.18411 0.070086 -0.76722 0.22164 -0.36053 -0.63142 0.18967 0.88215 -0.62171 -0.75066 0.84411
ש -0.57852 0.48031 0.49821 -0.7761 -0.74526 -0.582 0.49308 0.035189 -0.29902 -0.61624 0.15614 1.1133 0.68923 0.62025 -0.19392 0.036052 -0.70521 -0.15875 0.62329 0.9539 -0.44485 -0.65327 1.1764 0.22598 0.35893 0.98086 0.10918 0.29675 -0.52286 -0.18372 -0.76688 -0.33038 0.63413 1.1315 -0.96822 -0.097353 0.74067 -0.93376 -0.071232 -0.20076 0.97331 -1.1419 -0.063999 0.70428 0.78216 -0.45592 0.16504 0.77183 0.057796 0.33622
; -0.11604 1.1429 0.026043 -0.0084921 0.31898 0.65984 -0.25055 -0.98368 -0.83334 -0.21147 -0.37307 0.41228 0.029478 -0.42162 0.26829 -0.3826 -0.26704 -0.17551 -0.69986 0.08844 -0.05785 0.14381 0.43372 0.31841 -0.28405 -0.96445 0.09619 -0.53046 0.59122 -0.42788 3.3692 0.067626 -0.10391 -0.047914 0.11318 -0.056322 0.14699 0.057051 1.0275 0.41663 0.69818 0.54682 0.91148 -0.26655 -0.35268 1.1042 0.074058 -0.86765 0.074969 0.80395
ප -0.72455 -0.67023 0.11185 -0.51702 -0.18717 -0.3852 1.0329 0.13565 -0.69578 0.34835 -0.39639 -0.44594 0.55806 -0.10884 0.50183 0.013266 0.22815 -0.23174 0.35305 1.0543 -1.4685 0.62742 0.27856 2.0375 0.51907 1.1899 -0.40697 -0.97059 0.71538 0.92049 -1.223 0.021263 -0.81172 0.5962 -0.4098 -0.15333 -0.10758 -1.4292 -0.53869 -0.63737 0.89253 -0.43361 0.55046 0.3559 0.030372 1.8828 0.51638 0.92051 0.36334 0.25029
ත -0.91037 -0.63954 -0.35592 -0.66361 -0.23746 -0.2744 1.0215 -0.08471 -0.75941 0.34417 -0.32528 -0.12326 0.76944 -0.19978 0.51822 -0.15687 0.21486 0.24357 0.1912 1.3132 -1.2792 0.63013 0.32348 1.8274 0.66519 1.2335 -0.077361 -0.62167 0.51594 0.32915 -1.1088 0.24409 -0.62263 0.851 -0.70157 0.02247 -0.267 -1.4412 -0.12666 -0.79089 0.82669 -0.64347 0.28926 0.39392 -0.30885 1.3516 0.83828 0.97164 0.54326 0.30396
ಜ -1.0998 -0.033816 -0.094752 -0.10563 -0.54036 -0.5778 0.85061 -0.41424 -0.052172 0.36366 -0.35087 -0.17375 1.5579 0.87794 1.0758 -0.091649 0.13663 0.33281 0.58108 0.8771 -0.7443 -0.64209 0.26939 1.5162 0.50762 1.3227 -0.083169 -0.084568 0.15492 0.20566 -1.3406 -0.19848 -0.2475 0.20967 -0.2187 0.85945 0.24668 -0.024746 -0.27771 -0.76369 0.3895 0.033595 0.59994 0.16109 -0.55123 0.75437 1.0026 0.38048 0.87586 0.67514
ὁ -1.0316 0.75559 -0.32466 0.14888 -0.10629 -0.47368 1.0987 0.32706 -1.1273 -1.0252 -0.0036491 1.1523 0.71304 0.35765 0.46747 0.16983 -0.099201 -0.05934 0.18828 0.95994 -0.5756 -0.77356 -0.088802 0.54381 1.1519 0.64741 -0.34077 0.18203 0.31059 0.32356 -0.77845 -0.59077 0.43217 1.3842 -0.56091 0.46271 0.098729 -1.0862 -0.39951 -0.21302 0.66727 -0.60855 1.2124 -0.38831 0.39302 0.52126 0.39338 0.6121 1.1966 -0.30387
ס -0.75544 0.61972 0.3682 0.1031 0.64928 -0.74876 0.62284 -0.28524 -0.28004 -0.071405 -0.99335 0.40947 0.085543 -0.21494 -0.50173 -0.7493 -0.38163 0.13726 0.91263 0.30063 -1.0966 -0.3108 1.7581 0.4221 -0.7395 1.222 -0.26861 0.98643 1.506 -0.12673 -1.1923 -0.50182 0.0089549 1.4617 -0.16676 -0.75369 -0.61598 -0.067636 0.75067 0.2738 0.94082 -1.1489 -0.088014 0.98712 0.1473 0.027408 0.53706 0.6965 -0.047998 1.3045
y 0.11723 1.0841 -0.053105 1.5335 -0.14481 -0.57759 0.34483 -0.53862 -1.0883 0.85777 0.54502 0.41332 0.2146 -0.62796 -0.43957 -1.3131 -0.33797 -0.57519 0.37648 0.077038 -1.6088 -0.71571 0.76534 0.37327 -0.7326 0.32618 -1.0791 -0.10636 0.73251 -0.44364 1.6775 -1.0514 -0.96488 0.070034 -0.032693 -1.7435 -0.078649 -0.48295 0.69566 0.89638 0.59617 -0.15894 0.63727 -1.0303 -1.1533 -1.1079 -0.13872 -1.2205 0.74533 2.0112
α 0.59699 0.95973 1.1867 0.31173 1.3532 -0.38338 2.3215 -0.1144 -1.4387 0.83708 1.3629 0.36659 -0.2825 0.46203 -0.31013 0.51117 0.032735 -0.19776 -0.19964 0.0040642 -1.1241 -1.6082 0.82772 1.4114 -0.76027 0.9134 -0.8181 0.29827 -0.1541 -0.19122 1.2783 0.071861 0.72712 0.19 0.16802 -0.83601 1.2106 -1.3786 0.82343 0.98435 1.0993 -0.35017 -0.61645 0.22273 -0.92583 0.34865 0.86517 0.49601 0.074153 0.69713
ಪ -1.4066 0.061461 -0.28534 0.33975 -0.9059 -1.377 1.0521 -0.25474 -0.19472 0.51383 -0.46076 -0.56528 1.2601 0.092093 1.6296 0.22468 0.85384 0.48196 0.54266 1.3855 -1.1611 -0.25916 0.31976 2.0144 0.92001 0.77838 -0.278 -0.093509 -0.12555 0.44601 -0.78562 -0.8019 -0.57373 0.26216 0.031668 0.6861 -0.34126 -0.01649 0.0072864 -1.2083 0.30281 0.62813 0.79326 -0.42646 -0.44642 1.1132 1.378 0.50867 1.2667 0.5638
î -0.52958 0.33528 -0.35552 -1.1852 -0.62602 -0.11874 0.87624 -0.14231 -0.056991 -0.251 -0.39824 1.1337 0.58544 -0.25359 0.0045082 -0.20858 0.36499 0.18699 0.71584 0.36547 -0.73856 -0.97115 0.42471 0.29227 -0.12618 0.63022 -0.59494 0.79311 0.59791 -0.28617 -1.8254 0.29282 0.1002 0.98624 -0.49695 0.20048 0.3869 -0.81045 -0.29468 0.039035 0.50393 -0.41943 0.33379 -0.03334 0.73138 -0.089555 -0.20176 0.34451 0.34522 0.65064
ε 0.65675 0.63214 1.4919 -0.22589 1.1003 -0.35688 2.1049 0.64132 -1.1782 0.41541 0.95959 0.29811 1.0335 -0.5384 -0.30414 -0.30895 0.34489 0.24387 -0.37773 0.64863 -1.2352 -1.8536 0.37709 1.5193 -0.18552 0.32889 -1.0391 0.049087 0.16869 0.21 0.37616 -0.26705 0.74883 0.62221 -0.45584 -0.33224 0.94067 -1.066 0.86444 0.60884 1.9956 0.31136 -0.63237 0.46756 -0.86363 0.072986 -0.010395 0.57134 0.51043 0.20045
ಳ -0.74102 -0.024083 0.070416 -0.16966 -0.72842 -0.86912 0.99088 -0.18877 0.04441 0.26673 -0.54841 -0.24105 1.2872 0.79825 0.71767 0.035346 0.40329 0.36675 0.81948 0.7637 -0.64183 -0.679 0.073329 1.6269 0.60941 1.1863 -0.01796 -0.073606 -0.53059 0.38799 -0.84939 -0.72665 0.25969 0.81581 -0.0077964 0.36497 0.052438 0.16568 -0.10465 -0.9799 0.5571 0.26232 0.54909 0.090426 -0.52789 0.54201 1.2572 0.46539 0.54099 0.91124
φ 0.55651 1.497 0.49685 1.4476 0.83651 0.13184 2.223 0.14306 0.35254 -0.038328 0.89282 1.1075 -0.41047 -0.76399 -0.36158 0.22725 1.0275 -0.023237 -0.02508 -0.4343 -1.1105 -0.65159 1.304 0.70153 -0.0087432 0.99099 -0.31152 0.33186 -0.19056 -0.52083 0.78147 -0.0029354 -1.0526 -0.34734 0.14733 -0.93875 1.0505 -1.2804 0.64932 0.59404 1.0143 -0.40144 -1.5247 0.50254 -2.0294 -0.48017 0.99983 0.26262 0.50908 0.53077
! -0.58402 0.39031 0.65282 -0.3403 0.19493 -0.83489 0.11929 -0.57291 -0.56844 0.72989 -0.56975 0.53436 -0.38034 0.22471 0.98031 -0.2966 0.126 0.55222 -0.62737 -0.082242 -0.085359 0.31515 0.96077 0.31986 0.87878 -1.5189 -1.7831 0.35639 0.9674 -1.5497 2.335 0.8494 -1.2371 1.0623 -1.4267 -0.49056 0.85465 -1.2878 0.60204 -0.35963 0.28586 -0.052162 -0.50818 -0.63459 0.33889 0.28416 -0.2034 -1.2338 0.46715 0.78858
& -0.93044 0.74296 -0.6499 0.53508 -0.71172 0.72826 -0.83085 -0.95423 0.37669 -0.69549 0.1586 1.3371 -0.97651 -0.80166 -0.72986 -0.20873 0.38032 0.49776 -0.38351 -0.19521 1.3085 0.3809 0.58165 0.31836 -0.4606 -0.23461 -0.92929 -0.89022 -0.30075 -0.62035 2.4133 -0.17714 0.32953 -0.17466 0.083088 0.59434 0.20788 -0.45153 0.96393 0.30143 0.61823 -0.47519 -0.3881 -0.83168 0.45779 0.68986 -0.005843 -1.3797 0.012224 0.63522
6 -0.36204 0.86104 0.75856 0.35294 0.4441 0.6368 -0.28951 -0.21373 -0.842 -0.69237 -0.16285 -0.61173 -0.21894 -0.38956 0.89432 -0.60148 -0.80526 -0.32683 -1.5856 0.51 0.31367 -0.49438 1.2063 0.20409 -0.45718 -0.39895 1.0473 -0.5933 0.33915 -0.19245 3.3483 0.10517 -0.26349 0.60404 0.42311 -0.34603 0.70007 0.31399 0.70675 -0.31533 0.22975 -0.49335 0.75389 -1.0146 -0.51587 0.98664 0.19037 -0.95132 0.28706 0.43087
« -0.39432 1.1785 -0.66896 -0.083153 -0.72642 -0.12686 0.53708 -0.38604 -0.55363 0.54345 0.36036 0.5755 0.087011 0.39546 0.10401 -0.93944 0.37444 0.97975 0.056676 0.67672 0.27723 -0.31888 0.6265 0.26414 0.22859 0.34688 -1.2719 0.14997 -0.13239 -0.45077 0.72328 -0.41852 -0.6367 0.29964 -1.1569 0.16457 0.49268 -0.0090411 0.36271 0.40198 0.91649 -0.94713 0.052724 -0.87124 -0.31822 -0.059892 -0.11139 0.19277 0.2434 0.3398
ć -0.41595 -0.071789 0.61128 -0.94334 -0.4151 -0.088009 0.51746 0.17516 -0.61718 -0.082675 -0.19337 0.2169 0.34513 -0.040561 -0.28465 -0.83441 -0.63112 -0.049873 0.66594 0.52135 -0.077083 -0.16106 1.1651 0.35215 0.48951 1.4816 -0.19115 0.1075 0.78744 -0.019943 -1.0847 -0.10289 0.29899 0.4419 -0.45009 -0.032151 0.082837 -0.44828 -0.51907 0.041445 0.45699 -1.4611 0.66825 -0.73875 0.69532 0.0034944 -0.008372 -0.15602 0.57999 0.20798
ರ -1.0374 -0.033955 -0.15365 0.10999 -0.54918 -1.3324 1.2217 -0.59419 -0.1388 0.37415 -0.60186 -0.48426 1.9944 0.26587 1.3196 0.16728 0.60563 0.7102 0.36903 1.5303 -1.0264 -0.858 0.27879 2.1048 0.65606 0.85166 -0.65074 -0.17986 -0.02013 0.31434 -0.87256 -1.1114 -0.74099 0.33764 0.2481 0.89218 0.40241 -0.060608 -0.0012186 -0.85905 0.4731 0.70653 0.60731 -0.228 -0.65608 1.6631 0.85592 -0.19852 1.4784 0.5115
> -0.60885 1.0596 0.93257 0.47133 -0.22134 -0.0010142 1.476 -0.8897 -0.84182 -0.18855 0.13302 0.61165 0.52111 -1.2008 0.010792 0.18241 0.059783 -0.0064489 -0.57684 -0.078064 -0.78423 -1.2988 1.3044 0.9139 -0.12896 0.61352 -0.61954 -0.5856 0.21124 -0.15894 1.2726 0.55268 -0.13582 0.5202 0.63426 -0.13056 0.67863 -0.84515 1.0497 0.47853 0.83901 0.051798 0.071248 0.39189 -0.45218 0.44446 0.9738 0.028828 0.97097 0.59603
о -0.22336 0.99583 -0.90141 -0.30724 -1.3713 -0.23257 0.96312 -0.4648 -1.2422 -0.39822 -0.13288 0.30127 0.94274 -0.033142 0.12418 -0.78195 -0.63658 0.63609 0.93112 0.29109 -0.26924 0.05161 0.84871 0.21384 0.47729 1.2847 -0.51984 0.77822 0.50642 0.21688 -0.26888 -0.27666 -0.78248 1.3787 -0.60002 -0.07746 0.069829 -0.73813 0.52242 0.87018 0.76394 -0.69651 1.0798 -0.92429 0.33063 -0.69999 0.53429 0.59047 0.73295 0.65406
н -0.48384 -0.16189 0.067588 -0.1605 -0.82023 -0.72653 0.72932 -0.10131 -0.61099 -0.18919 -0.4584 -0.026497 0.36204 0.023234 0.64322 0.23787 -1.0954 -0.93884 1.3747 0.089949 -0.16441 -0.12037 1.2764 0.53613 -0.013241 1.3981 0.45551 0.93955 1.1053 0.58515 -0.77228 -1.0098 -0.69264 1.4353 0.15277 -0.034756 0.29249 0.00079528 0.35439 0.72945 1.2571 0.01818 0.56857 -0.19609 0.18789 -0.37351 0.92869 0.36481 0.50595 0.55495
m -0.47714 1.7847 1.3788 1.0443 0.50386 -0.23525 0.6409 -1.3447 -0.091542 -0.87196 -0.094991 -0.58697 -0.54982 -1.0523 0.42966 0.10966 0.5299 0.9029 -1.5233 -0.51371 -0.73551 -0.2591 0.78334 -0.18729 0.50978 0.16163 0.22219 -0.072781 -0.64646 0.28897 2.5236 -0.53972 -0.012524 0.87292 0.031627 -0.67759 0.83808 0.24742 0.10185 0.11754 0.51859 -0.47399 0.3741 0.42624 -0.645 -0.13466 0.5793 -0.94238 -0.29406 -0.18219
ь -0.89947 0.43561 -0.16766 -0.51531 -0.65669 -0.17852 0.65013 -0.16896 0.29253 0.0096996 0.22346 1.0264 0.87827 -0.20416 -0.17112 -0.65782 -0.32277 -0.10091 0.74329 -0.31431 -0.67758 -0.082849 0.55461 -0.45386 0.12526 1.2502 0.83582 1.0222 0.16008 -1.0396 -0.57722 0.47064 0.28831 1.0518 -1.4646 0.6166 -0.032296 -1.5209 -0.087127 -0.52556 1.0979 -0.29595 0.13928 -0.80036 0.93566 -0.90666 0.32123 -0.16053 -0.26441 -0.15328
› -0.83809 0.67529 0.54789 0.43186 0.20812 -0.30972 0.90201 0.11339 -0.46632 0.66382 -0.02484 0.42244 0.52505 0.13858 -0.0054682 -0.6192 -0.77105 -0.050028 0.47897 -1.0691 -0.19381 -0.45921 0.36501 0.99313 -0.50603 1.0988 -0.053097 0.00069709 0.22991 0.32255 -1.8274 -0.097209 0.48623 0.33456 0.15905 -0.97993 -0.19257 -0.22162 -1.0433 -0.042222 1.48 -0.065117 0.52393 0.82382 0.13657 -0.24238 -0.23956 -0.18204 -0.17502 0.64516
5 -0.24553 0.92887 0.94636 0.29393 0.39314 0.53382 -0.29355 -0.31434 -0.62094 -0.4273 -0.23509 -0.52062 -0.095535 -0.3516 0.89212 -0.54079 -0.67408 -0.27857 -1.5973 0.38972 0.44949 -0.58631 1.1934 0.21847 -0.52188 -0.4662 0.80966 -0.61973 0.27912 -0.25251 3.5053 0.27438 -0.17765 0.68347 0.45855 -0.46349 0.6654 0.20135 0.5917 -0.44234 0.23723 -0.40514 0.70945 -0.95255 -0.55746 0.91859 0.17705 -0.75177 0.42187 0.48225
ಹ -0.95008 0.14853 -0.11411 -0.31853 -0.8896 -1.1909 1.1392 -0.3554 -0.26497 0.42897 -0.41367 0.46144 1.5665 0.61265 0.60796 -0.091322 0.34734 -0.36903 0.96037 0.77305 -0.88909 -0.93134 0.34738 1.4511 0.81426 1.2816 -0.39071 -0.34462 -0.45483 0.10628 -0.96655 -0.51688 0.13459 0.31082 -0.097241 0.58521 0.06318 0.028817 -0.3948 -0.62994 0.65448 0.23661 0.85503 0.48198 -0.71233 0.65392 1.2534 0.72412 0.87499 0.37649
s -0.15234 0.98085 1.0065 0.97812 0.6628 0.11185 0.65486 -0.47587 0.14584 0.088221 -0.013397 -0.028024 -0.67574 -0.041599 0.16138 -0.040447 -0.4712 0.013284 -0.63138 0.22265 -0.051539 0.033878 -0.21629 0.036112 -0.070557 -1.2291 -0.17637 -0.093006 -0.07129 0.4066 2.5373 0.05641 -0.17576 0.85382 0.070196 -0.84828 0.14811 -1.1011 -0.074584 -0.76636 0.36425 -0.057073 0.31338 -0.67127 -0.12431 0.46572 0.30576 0.037843 0.71744 0.32435
ě -0.11829 0.26983 0.12525 -0.37408 -1.2155 -0.34429 0.59791 -0.88496 0.2847 -0.44613 -0.13813 0.27526 0.30031 -0.24654 0.14498 -0.14151 -0.71092 0.46261 0.78361 0.40578 -0.88033 0.20138 -0.065141 0.40146 1.0003 0.90834 -0.87826 0.30281 -0.16156 0.42382 -1.1497 0.47716 0.063662 0.50507 -0.8739 0.3264 0.45348 -0.99471 -0.1627 -0.15775 0.81433 -0.26109 -0.28548 -0.17258 0.59758 -0.38229 0.82551 0.57135 0.5749 0.7516
˚ 0.13743 -0.21841 0.32146 -0.82858 -0.019207 -0.61994 1.4067 -0.4676 0.30073 0.75388 -0.46669 -0.14709 0.31459 -0.018314 -0.97038 0.30533 0.17202 -0.21845 -0.30735 0.55192 0.4819 0.93776 1.1831 0.1999 -0.24461 1.9035 0.90151 0.18253 0.25277 -0.03495 -0.54604 -0.035499 -0.034556 0.79581 0.60063 -0.88425 0.24816 -0.30209 -0.16384 0.16488 0.25971 -0.093212 0.035212 0.090688 -1.1663 -0.596 1.2588 -0.32631 -0.40254 1.0855
¼ -0.42155 1.0329 0.87654 0.037628 0.19816 0.2104 0.76856 -0.33251 -0.2956 -0.36733 -0.53019 -0.49883 0.29329 -0.89353 -0.18257 -0.73283 -0.28507 0.95509 -0.76293 -0.27361 -0.15566 -0.50972 1.9236 0.1083 -0.48459 0.69156 0.85192 1.4066 1.358 0.11602 1.002 -0.56365 -0.39575 2.1122 0.14394 -0.10286 -0.63016 0.323 0.3204 -0.74364 1.9423 -1.0159 0.22254 -0.32582 -0.56508 0.29974 0.95935 0.087672 -0.42868 -0.74263
ɔ -1.2902 0.31687 0.13081 -0.25868 -0.47578 -0.76668 0.9859 -0.44745 -0.18389 0.24499 0.24214 0.046513 0.29163 -0.53756 -0.86571 0.25701 -0.78063 0.31151 1.0422 0.66149 -0.97839 0.94776 0.19612 0.42266 0.59652 1.2325 -0.21473 0.25103 0.18198 -0.79633 -0.14669 0.22523 0.82739 -0.33553 -0.71498 0.47674 1.1843 -1.5244 0.83212 -0.2472 1.4127 -0.98953 -0.62198 -0.11536 0.79709 0.66506 0.89489 0.22442 -0.30554 1.0767
є -0.4177 0.27182 0.0010959 0.45003 -0.2705 -0.48346 0.43323 -0.47761 0.075545 -0.60355 0.21854 0.59145 0.75932 -0.022991 -0.99511 0.5155 -0.24983 0.46781 0.68292 0.058779 -0.21084 0.26763 -0.035678 0.0061331 0.39405 1.2611 0.013532 0.52215 -0.12298 -0.15303 -1.3399 -0.067703 0.26321 0.4682 -0.78597 0.051911 0.17052 -1.3676 -0.29593 0.43102 1.0808 -0.88901 0.1983 -0.29465 1.4053 0.16021 -0.13044 1.0094 0.35975 0.25855
ю -0.94052 0.11111 0.10234 -0.0068223 -0.3355 -0.5206 0.86756 -0.60747 -0.32091 0.0037022 -0.19317 0.32022 0.57763 0.061611 0.22108 -0.55492 -1.165 0.48426 0.82664 0.1038 -0.1622 -0.078713 0.72739 0.11947 0.3067 1.289 0.47042 0.11026 0.2778 -0.40885 -1.4013 -0.015739 -0.28976 1.2317 -0.32773 -0.18397 0.17687 -0.2406 -0.23956 0.5311 0.68791 -0.67466 0.46969 -0.069587 1.3197 -0.79664 0.3798 0.046105 0.60342 1.0086
ត -0.63768 -0.2976 0.51194 -0.34028 -0.4011 -0.53773 1.8006 0.081774 -0.53007 0.59043 -0.032691 0.44593 0.84985 0.52438 0.65288 -0.0017587 0.32066 0.3429 0.74486 1.0308 -0.93265 -0.57118 0.71511 0.82619 0.44656 1.2724 0.15328 -0.96181 0.75043 0.7255 -1.3854 -0.54743 -0.58793 0.19311 -0.59267 0.3326 -0.13892 -0.57365 -0.12209 -0.38292 0.17013 -0.69767 0.49927 0.87043 -0.32052 0.53338 0.92476 0.5997 -0.2062 0.44935
ན -1.4278 1.5753 -0.68617 0.25322 -0.2211 -0.29138 0.35746 -0.46047 0.11123 -0.030409 -0.93738 0.32422 1.4897 -0.38102 1.2371 -0.61827 0.63046 -0.52559 1.0629 0.75939 -0.92872 -0.16573 -0.6224 1.679 0.96338 0.89324 0.12312 -0.56956 0.62918 -0.55138 -0.82553 -0.72159 -0.69192 0.069161 -1.0321 0.61935 0.23187 -1.2177 0.23066 0.18245 0.60564 0.29337 0.95796 -0.039375 0.53925 1.3335 0.69759 0.22491 0.60795 0.36326
、 -0.40503 0.16584 -0.30208 -0.57238 0.16895 -0.026519 1.4467 -1.0294 -0.56799 -1.7079 -0.39514 -0.56833 1.3011 -0.65797 -0.62776 0.26287 1.1905 1.5401 1.2498 0.88129 0.18017 0.90507 0.39853 1.4709 2.0864 2.1069 0.29023 -1.1939 -0.3985 0.32138 0.33603 -0.46082 -0.40206 1.6221 -0.1538 0.94524 0.49894 -0.26308 1.0536 1.1379 0.55548 -1.0525 0.93429 -0.35117 0.95182 0.53445 0.14457 -1.0898 1.4272 -0.12062
ಯ -1.1089 -0.51979 -0.19476 0.15157 -0.71673 -1.1202 1.5026 -0.5285 0.085134 0.097431 -0.30924 -0.0053912 1.6769 0.73881 0.83555 0.064863 0.34689 0.7208 -0.076912 0.63632 -0.65835 -0.64783 0.36825 1.5334 0.84512 1.0184 -0.052084 0.065388 0.19361 0.87806 -0.93198 -1.0353 -0.28098 0.54334 -0.26265 0.50426 0.054308 -0.37491 -0.43356 -0.77375 0.75348 0.34153 0.93692 0.28975 -0.57182 1.0406 1.1639 0.47845 1.0896 0.65621
₂ 0.21593 0.70734 0.55486 0.62748 -0.59924 0.070329 1.1585 -0.56928 0.26014 0.5893 -0.11161 1.1304 -0.70822 0.31475 -0.50341 -0.11642 0.35503 -0.25669 0.99924 0.47787 0.42368 -1.1531 1.0766 0.624 -0.28236 1.1341 -0.47878 -0.24917 -0.1655 0.3905 -0.86467 0.54742 0.37187 1.2242 -1.0785 -1.2216 -0.28526 -0.75501 0.3219 0.542 0.51914 -1.1119 -0.31765 -0.28035 0.94313 0.10864 -0.20706 -0.44716 0.7968 0.84748
ང -1.5573 1.8714 0.043327 0.55867 0.3121 -0.068425 0.92443 -0.34741 0.4237 -0.022501 -1.4657 -0.011251 1.7093 -0.5881 1.0845 -0.17328 1.5409 -0.04104 1.2346 0.61787 -0.95954 -0.34871 -0.5778 2.0055 0.97367 0.70452 0.41326 -0.50172 0.76025 -1.1229 -0.66199 -1.3389 -0.81062 0.26501 -0.61795 0.68515 0.35857 -1.2953 0.60826 0.46968 0.70359 0.61013 0.7704 0.40008 0.56929 1.5955 0.82288 0.21561 0.17615 0.32253
镇 0.039278 -0.1039 0.59607 -0.45102 -0.98594 -1.514 0.82309 0.70737 -1.5898 -0.79022 -0.36274 -0.0877 1.2832 -1.524 -0.5693 -0.19263 0.73283 1.1021 0.39281 1.1058 -1.5452 0.34002 0.46177 1.2104 0.72351 1.8217 0.031353 -0.67486 0.02812 -0.055626 -0.65092 0.12797 -0.17816 1.6034 0.13065 1.2684 -0.1129 -1.5844 0.068239 0.98176 1.3294 0.3822 0.26353 -0.91759 0.45229 0.11476 -0.34575 -0.40314 0.15742 -0.34469
к -0.087619 -0.2223 0.15869 -0.99279 -0.80854 0.44601 1.6086 -0.33683 -0.60491 -0.83232 0.1221 0.6829 0.21694 -0.25575 0.0028992 -0.074914 -0.30449 0.54249 1.3949 0.34779 0.29765 -0.5726 1.2148 0.51046 0.30141 1.2515 -0.36146 0.4196 0.07389 0.30905 -0.78386 0.22094 -0.18867 1.36 -0.50996 0.44665 0.20551 -0.62927 0.198 0.41782 0.86779 -0.58556 0.37073 -1.1516 0.42637 -0.43369 0.62831 0.70253 0.66902 0.30424
% -0.9208 0.60392 1.1053 -0.39188 1.0204 2.1945 -0.49508 -1.9547 -1.0751 0.1454 1.2495 -1.4208 1.894 -1.3024 -0.1751 0.33084 -0.17029 0.169 -0.87306 0.22944 0.027846 0.33347 1.2866 0.23098 -0.12257 0.38349 0.24163 -0.67453 0.08332 0.76547 3.2612 0.62834 -0.016612 -0.12178 0.85848 -1.1687 -0.10173 0.070155 0.99368 0.029438 -0.065403 -0.50471 1.1739 -0.28263 -1.381 -0.43341 -0.58927 -0.19344 1.6497 -0.10516
ă -0.66661 0.89827 0.050121 -0.75531 -0.46118 0.20257 0.58165 0.39328 0.29186 0.32664 -0.50799 0.84614 1.1618 0.20937 -0.029805 -1.2084 -0.75192 0.052178 1.1213 0.029344 0.13233 -0.037633 0.69519 0.019434 0.49381 1.146 0.06968 0.57323 -0.52222 -0.64151 -1.0342 -0.3333 1.0281 0.36828 -0.87519 -0.22559 0.15475 -1.3189 -0.12309 -0.82428 0.81816 -0.92392 0.45359 -0.61782 0.47899 -0.20245 0.033507 0.583 -0.22102 0.72608
ಬ -0.68336 0.28703 0.043147 0.29496 -0.77564 -1.293 1.3783 -0.36038 0.013131 0.63739 -0.90202 -0.12642 1.1942 0.57166 0.74736 -0.028482 0.51955 0.71522 0.47017 1.0983 -0.72284 -0.75678 -0.077503 1.731 0.61689 1.0259 -0.332 0.072108 -0.46797 0.13786 -0.94408 -0.5652 0.57156 0.86025 0.11231 0.55625 0.059831 0.1779 -0.31675 -0.86998 0.64033 0.62227 0.52173 0.24424 -0.56854 1.0182 1.1229 0.36125 0.7292 0.78638
￥ -0.019789 -0.040119 0.86891 -0.4406 -0.64804 -0.29955 1.2337 0.31631 -0.31242 0.49639 -0.23844 0.22749 0.4677 0.074365 0.43413 -0.27598 0.050052 0.57158 0.51428 0.6999 0.20763 -0.54641 0.025493 -0.013551 0.35167 1.0538 0.41917 -0.27521 0.58718 -0.43528 -1.2657 0.61221 0.26812 1.3895 -0.74937 0.05711 0.12172 -0.11501 -0.021819 -0.42665 0.45744 -0.78259 0.6527 0.29587 -0.46355 -0.67562 0.44311 0.23708 -0.18194 0.24766
8 -0.2564 0.78335 0.85796 0.33682 0.43033 0.47916 -0.41089 -0.38794 -0.68804 -0.6897 -0.27524 -0.55619 -0.19725 -0.29213 1.0106 -0.52346 -0.80605 -0.2497 -1.5444 0.4259 0.54156 -0.34052 1.176 0.38937 -0.46064 -0.32152 0.93312 -0.5858 0.29908 -0.29216 3.3221 0.097658 -0.45206 0.53439 0.4306 -0.43311 0.80393 0.14101 0.58449 -0.19426 0.10779 -0.40735 0.69376 -0.99923 -0.57392 1.007 0.21793 -0.86201 0.38499 0.57965
ἡ -1.0449 0.43691 -0.031072 -0.77257 -0.64576 -0.25335 0.80148 0.34697 -0.50616 -0.091002 0.39847 0.62771 1.0243 0.79316 0.0037152 -0.44924 0.3319 0.0022187 1.1581 0.49061 -0.98481 -0.61162 -0.26263 0.76689 1.1109 1.4467 -0.16612 -0.077249 0.17487 0.38715 -0.9298 0.086138 -0.00254 1.2621 -0.6584 0.38106 0.40766 -1.0182 0.23527 0.44786 0.33523 -0.50452 0.62977 -0.39126 0.34843 -0.01825 0.32993 0.76849 0.98619 0.29122
⅜ -0.16212 0.9383 1.28 -0.67125 -0.18409 0.35692 0.97605 0.098689 0.41874 -0.37287 -0.50558 -0.61207 0.60833 -0.091726 -0.37661 -0.57624 0.047346 0.32701 -0.6437 0.46225 -0.4441 -1.1194 1.2834 0.21748 0.083802 1.1506 0.25061 1.19 1.6835 -0.52147 -0.29633 0.28812 -0.031237 1.5073 0.13566 -0.1079 -0.2414 0.28935 0.29411 -0.73883 0.61657 -0.83723 0.81201 -1.3219 -1.3309 0.27581 1.6292 -0.31497 -0.11334 0.48133
\ -0.56888 0.92558 0.72886 0.49299 0.018528 -0.99899 0.45897 0.53309 -0.69731 -0.13726 -0.65431 1.1011 -0.62995 -0.61862 -0.389 -0.59244 -0.67199 0.95106 0.065679 -0.20711 -1.3982 -0.020197 1.4834 0.078576 0.2963 0.26236 -0.60204 0.56499 0.81979 -0.68553 1.6077 -0.017203 0.11643 1.7121 0.55242 -0.4538 0.25179 -0.61592 1.6335 -0.29288 0.38008 -1.2285 -0.26997 0.4803 -0.50296 0.64868 0.83182 0.71013 -0.22866 1.4826
ë -0.37015 0.29221 0.14826 -1.1856 -0.20558 -0.30744 0.41343 -0.34442 0.44287 0.10308 -0.16838 0.68354 0.75569 0.21217 -0.12198 -0.34572 -0.41758 -0.041528 1.2068 0.40719 -0.44673 0.11325 0.39562 0.34986 0.14477 0.86659 -0.32224 0.47808 0.15832 -0.30002 -1.0039 -0.4756 0.18957 0.68921 -0.32743 -0.36814 0.28626 -1.3477 0.051497 0.19011 0.2069 -0.30047 0.39943 -0.4293 0.6431 -0.34911 0.20782 0.323 0.10987 0.99407
х -0.034272 -0.11243 0.31045 -0.4519 0.19158 -0.014989 1.0759 0.57662 -0.2134 -0.35386 -0.3777 0.6379 1.2993 -0.59117 -0.316 -0.7934 0.057274 -0.94841 0.80651 -0.11899 -0.83422 -0.83495 1.032 -0.35303 0.16223 1.6987 0.62762 -0.063708 -1.0736 -0.3936 -1.3954 -0.8347 -0.77172 0.45077 0.34292 -0.60997 0.80159 -0.76653 -0.17869 0.00093119 0.45463 -0.43243 0.20509 -0.8514 -0.23269 -0.15353 0.080587 0.74235 0.42872 0.63653
e 0.73833 0.65451 1.0873 0.86066 -0.4834 -0.9825 -0.1328 -0.54704 0.35356 0.24776 -0.55684 0.76911 -0.22341 -0.97246 0.10125 -1.0475 -1.2904 -0.65822 0.48172 -0.3128 -0.048045 -0.21534 1.1261 1.1538 0.14075 -0.94391 -0.31116 -0.42186 -0.099165 -0.78428 2.7546 -0.24284 -0.17702 -0.081995 -0.54023 -0.62769 0.014979 -0.35867 0.38916 0.25102 2.0597 0.37733 0.028691 0.14071 0.1621 0.10083 0.27499 -0.16797 0.65622 1.1014
ද -1.064 -0.42003 -0.28558 -0.83813 -0.055123 -0.80058 1.001 -0.35305 -0.67335 0.18003 -0.6125 0.06712 1.021 -0.0090963 0.82999 -0.22784 0.15596 0.54931 0.41832 1.5281 -1.5085 0.29664 0.11733 1.6866 0.45247 0.98179 0.25282 -0.8901 0.38278 0.81967 -1.0068 0.13001 -0.7611 0.80132 -0.75361 0.036366 -0.58851 -1.3066 -0.44435 -1.1948 0.33258 -0.66624 0.55601 0.89763 -0.64832 1.5199 0.71502 1.0832 0.29157 0.58015
æ -0.8014 0.63916 0.43172 -0.81746 -0.93519 0.74218 0.69979 -1.0483 -0.1703 -0.885 0.11426 1.1429 0.46032 -0.36943 -0.92084 -0.11259 -0.06244 -0.16169 -0.32685 0.54779 -1.112 -0.04144 0.91769 0.026395 0.97875 0.53389 -0.6804 0.5848 0.59884 -0.71885 -0.78703 0.28917 0.33221 0.37133 -0.4903 0.41831 1.0361 -1.6247 -0.48594 0.030357 1.6802 -0.51668 0.44912 -0.32599 0.9709 0.035465 0.74498 0.83251 0.59598 0.32978
ι -0.1029 0.16543 -0.2581 0.090869 0.8833 -0.78022 2.0608 0.30187 -0.13488 0.79965 1.4031 0.83827 1.2878 0.17169 -0.3583 -0.29782 -0.31654 1.2409 0.55023 0.932 -0.6185 -0.063442 0.83583 0.36807 -1.0938 0.70298 0.42369 0.46316 -0.022284 -0.30889 -0.2841 1.0282 0.049348 0.48242 -0.67709 0.67478 0.44157 -0.63613 0.58547 -0.094884 1.1668 -0.0025917 -0.21929 -0.068477 -1.0506 -0.27006 -0.46275 0.98319 -0.33988 0.5736
δ 0.79252 0.97258 0.63547 1.2091 0.80053 -0.43839 2.225 0.52122 -0.61247 0.58798 1.1487 0.34636 0.10045 -0.34275 -0.24323 0.50005 0.36368 -0.21202 -0.063781 -0.20288 -1.2683 -1.2217 0.52209 1.0987 -0.6733 0.64933 -0.79051 0.56576 0.0061866 -0.19968 0.73861 0.090042 0.12074 0.51367 -0.13958 -1.3533 0.80715 -1.3864 0.72541 0.84752 1.1831 0.25352 -0.54478 0.1426 -1.2909 0.10334 0.44744 0.417 0.0042118 0.92918
υ -0.058498 0.16976 -0.19299 0.87175 0.053606 -0.20901 1.5106 0.13338 0.092909 0.78729 0.43497 0.93458 0.32606 0.00050828 -0.30451 -0.90715 -0.406 1.1153 0.56926 0.89972 -0.82732 0.39552 0.44556 0.04415 -0.064372 1.1349 1.5253 -0.15545 -0.46386 -0.85975 -0.4911 0.50111 -0.07358 0.26926 -1.0782 0.42633 0.91138 -0.69375 0.16342 -0.065166 1.2876 -0.87119 -0.65863 0.77122 -1.0512 0.35837 -0.53891 0.69339 -0.37841 0.23404
i 0.11891 0.15255 -0.082073 -0.74144 0.75917 -0.48328 -0.31009 0.51476 -0.98708 0.00061757 -0.15043 0.8377 -1.0797 -0.5146 1.3188 0.62007 0.13779 0.47108 -0.072874 -0.72675 -0.74116 0.75263 0.8818 0.29561 1.3548 -2.5701 -1.3523 0.4588 1.0068 -1.1856 3.4737 0.77898 -0.72929 0.25102 -0.26156 -0.34684 0.55841 0.75098 0.4983 -0.26823 -0.0027443 -0.018298 -0.28096 0.55318 0.037706 0.18555 -0.15025 -0.57512 -0.26671 0.92121
ç -0.75908 0.097169 0.3241 -0.78986 -0.12927 0.040764 0.45388 -0.495 -0.83679 0.3863 -0.14011 0.9653 0.36764 0.31639 0.60923 0.12704 -0.51277 1.1856 0.26443 0.32999 -0.33833 -0.43215 0.46598 0.51692 -0.12914 0.15737 -1.2705 0.38624 1.3586 -0.41759 -1.2941 0.033949 -0.64915 0.5565 -0.28155 -0.23723 0.37539 -1.4683 1.0876 0.58564 -0.023541 -0.50293 -0.070988 0.35204 -0.17076 0.8378 0.030968 0.96045 0.12121 1.1265
ട -0.64076 -0.28088 0.081746 0.58235 -0.25302 -1.1215 1.1043 -0.98387 -0.71246 0.39063 -0.68424 0.72837 1.4286 0.98666 0.86739 -0.45474 0.26742 0.78692 0.38371 0.81885 -0.72448 -1.2895 -0.1767 1.166 0.60531 1.3636 0.0307 -0.29249 -0.0522 -0.28947 -0.95088 -1.3917 0.028814 0.37944 -0.6187 0.57954 0.19357 -0.65754 -0.34112 0.099292 0.38729 0.33102 0.47776 0.42257 -1.0394 0.68496 0.59948 0.53707 0.59598 0.99313
€ 0.46028 0.75157 0.61211 -0.29685 0.2523 -0.012174 0.40872 -0.59849 -0.56924 0.53048 0.32785 -0.40489 0.7202 -1.9017 1.6715 -0.88866 0.36091 0.89077 -1.0809 -0.076913 0.7623 -1.136 -0.34029 -0.089198 -0.81007 0.67291 1.47 -0.40225 -0.8239 0.46498 1.7181 0.63083 0.20911 1.1751 -0.38261 0.051111 0.7431 0.41903 -0.00080216 -1.3242 1.5372 -0.58652 0.60984 0.1809 -1.6198 -1.1402 -0.15744 0.36813 0.12895 -0.11471
ħ 0.090003 -0.05048 -0.07286 -1.0274 0.044549 0.22173 2.1178 0.019841 0.52426 -0.51731 1.0216 0.11986 -0.51154 -0.90227 -0.12298 -0.49555 0.69618 1.4309 -1.213 -0.12395 -0.17564 -0.054688 0.80993 0.95692 0.24324 0.81471 -0.46685 0.66131 0.13999 0.71728 -0.12798 0.70573 1.1411 0.37358 -1.1497 -0.07735 -0.06393 -1.4469 0.61399 -0.3695 1.6644 -0.56066 -0.35199 -0.74595 0.66782 -0.64514 1.4996 0.81048 -0.29735 0.84309
+ -0.52478 1.9003 1.6893 0.60468 0.22433 0.16079 0.8353 -1.1668 -0.21295 0.52092 0.16717 -0.080523 -0.094242 -0.68049 0.069053 0.080026 0.42724 0.40676 -0.11127 0.073266 0.11382 -0.38132 1.2858 1.0384 -0.5537 0.70078 0.076267 -0.67258 0.25262 0.13164 2.3263 0.14156 -0.28485 0.18626 0.33972 -0.45694 1.038 -0.85377 0.050138 -0.093139 1.3809 -0.84466 0.22797 -0.55633 0.18262 0.072961 0.24179 -0.14534 0.43551 1.1888
á 0.11661 0.43985 -1.0587 -0.88574 -0.88917 0.032613 1.0077 0.11095 -0.23658 0.5659 0.30229 0.58932 0.50805 0.28207 -0.13011 -0.20191 -0.0042686 -0.088337 0.51347 0.68737 -0.8588 -0.30667 0.16145 1.0378 0.68492 0.87396 -0.62616 0.52166 -0.29927 -0.11064 -0.42939 0.20939 0.28033 1.0742 -0.39954 -0.29279 0.8367 -0.84412 0.80373 0.75133 0.1445 -0.14663 -0.17025 -0.096249 -0.52597 0.11798 0.5764 -0.13471 0.77155 0.2933
ý -0.16727 0.56328 0.35378 0.037897 -1.3701 -0.50566 0.88806 -0.62719 0.65092 0.43325 0.24728 0.62104 0.48922 0.78699 -0.47025 -0.082348 -1.1192 0.36069 1.6887 0.96172 -0.57375 -0.56671 0.2867 1.0777 0.72365 0.81716 0.41156 -0.093767 -0.31502 0.18863 -0.73516 0.86217 0.46038 0.7579 -0.95158 -0.19301 -0.12034 -0.43804 -0.27662 0.76914 0.17436 0.6437 -0.63602 -0.099973 -0.3565 -0.56338 0.45551 -0.88174 0.082762 0.97092
t -0.37915 0.61848 0.9593 0.90403 0.36806 0.022972 0.16795 -1.5309 -0.060533 -0.25 0.15031 0.31967 -0.68914 -0.78626 -0.015825 0.50531 -0.8473 -0.12353 0.078526 -0.96024 -0.54313 -0.33516 0.38932 0.19461 -1.1688 -0.86608 -0.39178 0.24183 0.32862 -0.78755 2.4884 0.71015 -0.53114 0.89593 -0.23053 -0.82023 0.34425 -0.96866 -0.15143 -0.44912 0.89513 -0.01659 -0.2749 0.27948 0.77936 -0.31944 0.16756 -0.62515 0.053323 0.62023
^ -0.42022 1.128 0.75598 0.96246 0.041526 -0.10654 0.76271 -0.47191 -0.35392 -0.25999 -0.27142 0.44903 -0.054534 -0.42509 -0.014297 -0.14909 -0.32741 0.011888 -0.093466 0.24008 -0.88197 -0.53251 1.4996 0.37609 -0.11412 1.1531 -0.26221 -0.063797 0.24082 0.081565 0.24716 -0.17293 -0.48877 1.1017 -0.16125 -0.8406 0.71055 -0.45152 0.53033 -0.096145 0.81459 -1.2253 -0.12003 0.34096 -0.14971 0.80952 0.1168 -0.053203 0.40627 0.88878
< -0.60292 1.1734 0.81599 0.086194 0.36068 -0.064082 1.4942 -1.1903 -1.1872 -0.54148 0.57654 0.60091 0.77565 -0.80284 0.0012087 0.38546 -0.10898 0.51757 -0.81487 -0.02306 -1.1795 -0.9481 1.3664 0.96261 -0.028653 0.69662 -0.1773 -0.072403 0.83599 0.70704 1.1316 0.41566 -0.3806 1.2744 0.33244 -0.86378 0.40199 -1.0978 0.51057 0.63694 0.93841 -0.0042059 0.30094 0.41878 -0.35986 -0.20247 0.77569 0.056714 0.88472 1.1363
` -0.085825 0.6135 0.069353 -0.46893 0.61648 -0.4357 0.33897 -0.60111 -0.21054 0.49083 -0.68084 1.0032 -0.58766 0.42168 0.96016 0.23724 0.36332 0.45626 -0.20216 0.15471 -0.34284 0.5794 0.43453 0.43585 0.50042 -1.9072 -1.9391 0.31613 1.0746 -1.0377 2.427 0.47374 -0.86317 0.63867 -0.52506 -0.34949 0.32933 -1.3567 0.42056 -0.54968 -0.32598 0.15703 -0.0045524 -0.16917 0.094515 0.27165 0.36433 -0.49923 0.20809 1.3
n -0.27004 1.1144 1.0493 0.57924 0.78968 0.14137 1.4291 -1.0101 -0.78908 -0.27072 -0.21101 0.29724 -0.37254 -0.31723 -0.51419 0.35462 0.35406 -0.093878 -0.25165 -0.62402 -0.064895 -0.97966 1.8001 0.95118 -0.69039 0.2324 -0.55899 0.16657 0.33153 0.023364 2.0653 -0.45236 -0.67552 0.34039 0.60026 -1.1793 0.88805 -0.92985 0.020351 0.68063 0.85255 -0.097895 -0.68661 -0.2147 -0.70778 0.35091 0.31743 -0.77324 0.42681 1.0782
ŋ -0.82944 0.8073 0.33552 -0.40166 -0.74752 0.34461 0.55154 -0.63001 0.16349 -0.38327 -0.11207 -0.11047 -0.41554 -0.2811 -0.62891 -0.0089507 -0.30926 0.15667 0.865 0.65292 -0.18741 0.73366 1.6846 0.79056 0.56738 1.2059 0.14824 0.88546 -0.083172 -1.0309 -0.063148 0.066927 0.26967 0.023606 -1.2562 -0.53958 0.69201 -1.018 0.66078 0.064414 1.2702 -1.4055 -0.60072 -0.68681 0.55572 -0.0025998 0.80934 0.36881 -0.31082 0.99251
· 0.01811 0.55496 1.5158 0.54085 -0.046677 -0.32663 1.9934 0.58688 -0.4574 0.43944 -0.43132 -0.35873 0.36714 0.61422 -1.0796 0.014189 -0.030508 0.010218 0.85952 -0.42837 -0.49101 -0.5549 0.75072 1.228 -0.24205 1.3782 -0.35824 -0.2346 -0.24942 0.79073 -1.2647 -0.059987 -0.12818 0.21232 0.12604 -0.90784 0.53999 -0.99262 -0.14398 0.21962 0.18058 0.090159 -0.91652 0.14597 -0.35407 0.4669 0.56463 -1.2064 -0.20678 0.52273
ಡ -0.68331 0.44102 -0.23687 -0.14189 -0.73999 -0.78863 1.311 -0.20978 -0.064208 0.58626 -0.85112 -0.1659 1.0227 0.26548 1.3669 -0.064889 1.2825 0.38589 0.57499 1.2589 -0.92042 -0.38311 -0.56451 1.6824 0.80619 0.94156 0.20238 -0.33994 -0.097602 0.35573 -1.0003 -0.90611 0.012026 0.69377 -0.061227 0.59716 -0.19551 -0.0021419 -0.36959 -1.1701 0.52284 0.43351 1.0634 -0.038032 -0.58444 0.49196 1.2182 0.31028 0.89901 0.69087
ʃ -1.2525 0.004264 0.69303 -0.2082 -0.16955 -0.15868 0.75617 -0.6395 -0.011433 0.14338 0.16065 -0.19711 0.17928 -0.50247 -0.55867 0.078147 -0.28846 0.20011 1.153 0.98588 -0.44562 0.77567 0.37676 0.51655 0.27878 1.557 0.24706 0.077524 0.26979 -0.63761 -0.19826 0.39766 0.63873 -0.62485 -1.0843 0.5263 0.79108 -1.1682 0.75925 -0.99897 1.1274 -1.5978 -0.10992 -0.31577 -0.020368 0.68974 0.71447 0.46146 0.22434 0.72211
“ -0.2057 0.78354 -0.788 -0.51124 0.44937 -0.025776 0.055734 -0.53027 -0.15262 0.37179 0.27936 0.79332 0.052005 -0.25905 -0.033864 -0.55799 0.40159 0.34855 -0.019838 0.073899 -0.064018 -0.10985 0.25474 0.34797 0.62637 -0.98779 -1.5049 -0.20669 0.2072 -0.44224 2.9134 -0.72554 -0.45711 -0.6032 -0.68594 -0.060413 0.48713 -0.32689 0.039927 0.11235 0.41679 -0.64989 -0.34193 -0.21453 -0.15735 -0.22884 -0.13611 -0.56313 0.46687 0.59015
ལ -1.2166 1.1856 -0.46156 -0.2852 0.029296 -0.4704 0.64949 -0.56166 0.12946 0.15713 -1.198 0.20995 1.3198 -0.35672 0.96692 -0.46206 0.81243 -0.38614 0.90586 0.96448 -0.95218 0.17067 -0.23966 1.5571 1.0229 1.0595 -0.10695 -0.46544 0.61923 -0.57718 -1.0223 -0.64823 -0.672 0.3328 -0.91114 0.62045 0.11567 -1.4053 0.52337 0.33602 0.4915 0.45108 0.60123 0.041372 0.41529 1.4959 1.0616 0.20235 0.4812 0.18763
人 -0.24343 -0.0917 0.37676 -0.40738 0.52703 0.29632 1.7661 0.3178 0.3211 0.31403 0.22688 0.88339 0.70363 0.88207 0.037606 -0.81255 0.12301 1.0862 0.83278 0.5203 -0.78255 0.47846 0.48045 0.85123 0.82248 0.83343 0.42269 -0.51457 0.013765 0.56918 -0.78328 -0.19396 0.29351 0.61886 -0.5066 0.6684 0.35334 -1.0724 -0.70602 -0.13424 0.49473 -0.083367 0.36011 0.032902 0.09766 -0.61841 -0.41041 -0.0010685 0.61758 0.80668
* -1.1938 1.1732 0.82237 1.1455 0.37838 -0.85717 0.85872 0.033022 0.38944 -0.38555 -0.66604 0.028873 0.45012 -0.12365 0.090865 -0.46363 -0.78502 -0.16971 -0.26271 0.36645 0.32773 -0.60752 0.41459 0.091435 0.50768 -0.098204 -0.18557 -0.7913 0.023485 0.15537 0.86191 0.39872 0.27454 0.91809 0.082727 -0.66417 -0.090578 -1.0582 0.16044 -0.136 -0.19997 -0.33198 0.56859 -0.47544 0.8992 0.64079 0.72044 0.43303 0.98546 0.61928
ම -1.1156 -0.46142 -0.04297 -0.63333 -0.78715 -0.92129 1.2023 -0.07689 -0.37802 0.29735 -0.41983 -0.10435 0.80594 0.44435 0.56804 -0.086261 0.19344 0.18619 0.45906 1.2392 -1.188 -0.067055 0.62012 1.7226 0.18176 1.0676 -0.56405 -0.68064 -0.014877 0.36329 -1.2783 0.33894 -0.38762 1.2823 -0.51627 0.13816 -0.10572 -1.2662 -0.55463 -0.56527 0.47065 -0.39821 0.5998 0.73497 -0.30162 1.3148 0.65201 1.0645 -0.00499 0.036241
¨ -0.40706 -0.21306 -0.031436 -0.013682 0.056539 -0.40167 1.141 0.00014995 0.70005 -0.35022 0.53695 0.51355 0.67479 0.43264 -0.74761 0.58971 -1.015 -0.031521 0.5893 0.3831 -0.69915 -0.05346 0.90186 -0.27409 0.16477 1.4449 0.63907 0.92103 -0.20906 0.1369 -1.1756 -0.18168 0.52669 0.92829 -0.39855 -0.0071796 0.81792 0.11122 0.57806 0.26988 0.69644 -1.0389 -0.16106 1.022 -0.11154 0.41281 0.88922 1.1155 -0.056679 0.10961
é -0.14425 0.10877 -0.50408 0.13004 -0.33201 -0.32048 0.29739 -0.7124 0.033475 0.99433 0.36264 0.50685 0.73193 -0.24114 0.15038 -0.47787 -0.42703 0.44069 0.60421 1.3116 -1.1137 -0.28727 0.92773 1.1017 0.6835 0.77472 -1.0943 0.073082 0.5164 -0.72675 -0.47822 0.30071 -1.2552 1.4521 -0.52358 -0.60164 1.0283 -0.71879 0.88695 0.91446 0.56324 -0.61508 -0.88486 -0.167 -0.28455 0.30689 0.25806 0.269 1.1543 1.0493
。 -1.1964 0.1905 -0.78822 -0.84677 -0.41671 -0.77459 2.4087 -0.89332 0.97336 0.11347 0.011216 0.060384 0.02597 -0.57323 -0.017335 0.011665 0.64228 0.19478 0.69408 1.4385 -0.062308 0.64067 0.22111 0.60006 0.73815 1.0518 -0.46014 -1.1271 0.93324 0.47082 -0.40087 0.12204 -0.6156 0.65109 -0.53516 0.81907 1.3052 -0.083509 0.27863 0.96993 0.75096 -0.78786 1.0502 -0.023301 0.11196 0.69878 0.52088 -0.72545 1.0839 0.53653
ą -0.78934 0.10907 -0.59752 -1.044 -0.7809 0.17372 0.97077 0.40998 0.91774 -0.089549 -0.083801 0.30712 0.64157 0.2267 0.45069 -0.84585 -0.038225 -0.071185 1.1007 0.61098 -0.64247 -0.23909 0.98773 0.31966 0.25953 0.74589 -0.3354 0.60094 0.025759 -0.038767 -0.91894 -0.089567 0.45516 0.9425 -1.0755 0.52818 0.54563 -0.24318 -0.45617 0.041847 0.50725 -0.032159 -0.090756 -0.34806 0.47549 -0.55205 0.13051 0.68545 -0.3955 0.5643
) -0.28314 1.0028 0.14746 0.22262 0.0070985 0.23108 0.57082 -1.2767 -0.72415 -0.7527 0.52624 0.39498 0.0018922 -0.39396 0.44859 -0.019057 0.068143 0.45082 -1.2849 0.68088 -0.48318 -0.45829 0.85504 0.47712 -0.16152 -0.74784 0.40742 -0.97385 -0.7258 -0.17232 3.8901 -0.46535 -0.61925 0.63584 -0.20339 -0.080612 0.64959 -0.51208 0.91193 0.036208 1.0099 0.18802 0.59359 -0.61313 -0.66839 0.67479 0.40625 -0.6959 0.14553 0.37339
ə -0.40371 0.68714 0.093134 -0.58723 -1.4071 -0.69098 1.4165 -0.62414 -0.40871 0.14879 -0.032395 0.46058 0.017674 -0.49161 -0.52385 -0.24276 -0.42132 -0.17758 0.92634 1.0866 -1.9383 0.37737 0.76095 0.32194 0.85139 1.1878 -0.73718 0.49532 0.04573 0.044661 0.52733 0.67621 0.86567 0.16399 -1.1881 0.59985 1.1876 -1.3311 0.86257 0.0494 0.92314 -0.24093 -0.7002 0.24336 0.2887 0.24638 0.8636 0.53556 0.45632 0.93755
в -1.0499 1.3412 -0.34314 -0.87756 -1.2784 0.12923 1.812 -0.38165 -0.99111 -0.28184 0.26854 0.025401 0.63641 -0.1972 0.43346 -0.73533 -0.067576 0.87784 0.62636 0.59432 -0.1436 -0.48443 1.1189 0.68947 0.43216 1.2017 -1.3027 0.18763 0.86854 0.79353 -0.51126 -0.095098 -0.8649 0.34056 -0.95432 0.26793 0.77482 -0.29598 0.22235 0.27839 1.0995 -1.4716 1.276 -1.2403 -0.32968 0.44427 0.33918 0.55553 0.84487 0.48733
r -0.43277 0.75213 0.94062 0.9887 -0.16125 1.1209 0.379 -1.3027 -0.3313 -0.2585 -1.733 -0.011196 -0.10167 -0.33597 -0.71634 -0.31435 0.1914 0.11136 0.24408 -0.76984 -1.0203 -0.33256 0.92422 0.65597 -0.70729 -0.93946 -0.058835 -0.077047 -0.30198 -0.07874 1.9627 -0.72585 -0.8309 0.13127 0.76389 -1.6915 0.45107 -0.89262 0.37944 -0.069857 0.27522 1.0226 -0.83692 0.16194 -0.21771 0.95897 0.24177 -0.41281 -0.74908 2.6744
ä 0.38178 1.7446 1.2457 -0.41832 -0.26197 0.85174 1.4043 -0.2776 -0.69137 -0.62552 0.03428 1.025 -0.13782 0.091398 -1.2292 -0.028571 -0.41078 -0.51407 0.91312 0.17499 -0.23748 -0.12778 0.38941 0.84656 0.14111 0.26937 -0.91975 0.62568 0.42806 -1.121 -1.0083 -0.0047226 0.54847 0.6791 0.031358 -1.2092 0.78144 -2.0018 -1.0621 0.49228 1.5361 -0.53406 1.2334 -0.66969 -0.0019789 -1.0193 0.58099 0.12888 -0.12321 0.58671
q -0.49308 1.3044 0.82512 1.2028 0.79557 0.089865 0.62619 -0.55892 -0.38874 -0.0070258 -0.033005 0.20542 -0.32884 -0.33407 0.90409 0.36524 -0.28193 -0.10471 0.043651 -0.40679 -0.27963 -0.097456 0.61867 1.3658 0.85197 -0.37783 -0.41542 -0.64343 0.29147 -0.14508 1.5851 0.3691 -0.57822 0.32784 0.092461 -0.89453 0.1188 0.020148 0.2119 0.028231 1.1364 0.23866 0.32246 0.09478 0.11061 0.80505 0.73101 -0.32186 0.62542 0.93004
ч -0.34664 -0.34741 -0.048784 -0.26435 0.22658 -0.83332 0.77383 -1.3951 -0.040909 0.65147 0.10936 0.71448 1.1533 -0.33355 0.21985 0.12005 -0.76799 -0.14668 1.6379 0.38648 0.089761 -0.074032 -0.31248 0.049332 0.036322 1.064 0.32795 0.18058 -1.0541 -0.55226 -1.2256 -1.1112 -0.26279 0.28668 -1.1195 0.36177 0.24782 -1.2675 -0.078696 -0.46467 1.6973 0.33805 -0.56128 -0.79642 1.0412 -0.25413 0.38187 0.15042 0.2011 0.22474
ж 0.00078012 -0.038724 -0.033332 -0.32511 -0.12453 -0.1422 0.93197 0.26271 -0.15393 0.86707 0.23868 0.71891 0.59436 -0.24651 0.28105 -0.57788 -0.43523 0.044252 1.2533 0.88713 -0.4472 -0.090642 0.67474 0.34 0.69545 1.2662 0.63796 -0.24537 -1.2262 -0.45308 -1.6016 -0.94828 -0.14023 0.29204 -0.462 0.013756 0.48788 -0.57309 -0.35131 0.047945 0.98482 -0.66479 -0.52672 -0.42413 0.96473 -0.74783 0.23491 -0.090128 0.4696 0.2302
י -0.83237 0.35689 -0.0070918 -0.94536 -0.26358 0.028572 0.87491 0.09769 -0.065865 -0.22413 0.090305 0.68753 1.8022 0.236 0.145 -1.0465 -0.55257 0.30653 0.63823 0.46822 -0.54978 -0.6646 0.92407 0.44156 0.78468 1.426 0.30195 -0.30595 0.047439 -0.11621 -1.0254 -0.42307 -0.22914 0.5991 -0.6213 0.27466 0.65323 -0.84066 -0.28236 0.28939 0.72432 -0.9256 0.42304 0.20989 0.18822 -0.4348 0.098647 0.45091 0.46071 0.57522
ර -0.91607 -0.50316 -0.20321 -0.56326 -0.14659 -0.48459 1.0192 0.063371 -0.56765 0.52514 -0.62915 -0.50866 0.75714 0.16868 0.9246 -0.04586 0.29406 -0.059522 0.0042333 1.5788 -1.4728 0.5507 0.5548 2.18 0.44918 1.2441 -0.096323 -0.90357 0.81333 1.0902 -0.87294 -0.23027 -0.742 0.99704 -0.40092 -0.14363 -0.065662 -1.4727 -0.59181 -0.68135 0.54459 -0.51595 0.47941 0.61909 -0.2293 1.9861 0.48169 1.0276 0.3643 0.40852
γ 0.78064 0.84511 0.65492 0.74413 1.0744 -0.81311 2.3767 0.23082 -0.67162 0.75305 1.2812 0.51877 -0.62286 0.51029 -0.62137 0.10584 0.12988 -0.27473 0.0099166 -0.087274 -0.97038 -1.0761 0.77867 1.1755 -0.74641 0.90232 -0.66399 0.71045 -0.098885 -0.63796 0.98318 -0.12734 0.19765 0.39237 -0.22252 -0.98648 0.70569 -1.2336 1.1241 1.2791 1.0804 -0.27752 -0.3731 0.063075 -1.2658 -0.47953 0.76212 -0.015908 0.48483 0.69244
э -0.52453 0.15739 0.64836 -0.69317 -1.475 -0.59536 0.92282 -0.0098682 -0.1125 0.27282 -0.38445 0.87477 0.46062 1.0716 -0.24781 -0.67639 0.16391 -0.20331 1.1578 0.48832 -0.67593 -0.52402 0.57059 0.83972 0.031951 0.77441 0.232 -0.19254 0.62232 0.3677 -0.93371 -0.30933 -0.27747 0.29615 -1.2538 0.72604 -0.057277 -1.0235 -0.18002 -0.30392 1.3765 -0.22955 0.61944 -0.10609 0.7515 -0.071765 0.52474 0.4136 0.047593 0.90367
" 0.25769 0.45629 -0.76974 -0.37679 0.59272 -0.063527 0.20545 -0.57385 -0.29009 -0.13662 0.32728 1.4719 -0.73681 -0.12036 0.71354 -0.46098 0.65248 0.48887 -0.51558 0.039951 -0.34307 -0.014087 0.86488 0.3546 0.7999 -1.4995 -1.8153 0.41128 0.23921 -0.43139 3.6623 -0.79834 -0.54538 0.16943 -0.82017 -0.3461 0.69495 -1.2256 -0.17992 -0.057474 0.030498 -0.39543 -0.38515 -1.0002 0.087599 -0.31009 -0.34677 -0.31438 0.75004 0.97065
( -0.24978 1.0476 0.21602 0.23278 0.12371 0.2761 0.51184 -1.36 -0.6902 -0.66679 0.49105 0.51671 -0.027218 -0.52056 0.49539 -0.097307 0.12779 0.44388 -1.2612 0.66209 -0.55461 -0.43498 0.81247 0.40855 -0.094327 -0.622 0.36498 -1.0038 -0.77693 -0.22408 3.6533 -0.52004 -0.57384 0.72381 -0.24887 -0.14347 0.69169 -0.51861 1.0806 0.20382 1.1045 0.31045 0.60765 -0.64538 -0.60249 0.60803 0.34393 -0.79411 0.15177 0.45779
ḳ -0.46162 0.60702 -0.091291 -0.58191 -0.48584 -0.11069 0.76634 0.27396 -0.4817 -0.81303 -0.85997 1.4098 0.48633 -0.27683 0.47772 0.30816 0.64995 -0.60605 0.12556 -0.090456 0.44706 -0.66696 1.0512 -0.031423 -0.040849 1.2697 0.6829 -0.44843 0.64524 0.68107 -1.9764 -0.80409 0.057598 -1.1688 -0.21688 -0.070101 0.41596 0.41531 0.60275 -0.11469 0.24657 0.031334 0.28069 -0.19318 -0.15942 0.29726 0.59976 -1.3281 -0.62485 2.1981
k -0.01397 0.9522 1.3895 0.31898 0.7499 0.12541 1.1389 -0.98466 -0.38303 -0.42239 -0.0041844 0.74183 -0.65699 -0.70609 -0.1046 0.13617 0.2446 0.49282 0.13939 -0.43558 0.067716 -0.90245 0.9855 0.74599 -0.45201 0.12494 -0.31104 -0.49475 -0.13627 0.19281 2.2641 0.11284 0.25865 0.72281 0.20008 -0.47253 0.59816 -0.62673 0.42918 0.37758 0.87099 -0.080057 -0.55072 0.39403 -0.67798 -0.095001 0.44503 -0.18911 0.1017 1.0684
я -0.42579 0.50451 0.36704 -0.4856 -0.35326 -0.55997 0.96023 -1.3364 -1.0945 0.07313 0.066187 0.17018 0.088153 -0.16528 0.43892 -0.11767 -1.2485 1.3969 0.73849 0.78866 -0.56343 -0.39134 1.0541 0.29186 0.12934 0.61753 -0.83034 0.16623 0.48293 -0.22598 -0.70919 -0.15864 -0.62563 1.3679 0.23624 -0.2707 0.32509 -0.23818 -0.62313 0.41817 0.53478 -1.2944 0.73653 -0.50061 1.3116 0.0097474 0.38804 0.78571 -0.031798 0.92451
ക -0.68147 0.2108 0.22187 0.58108 -0.11543 -1.2465 1.1141 -1.3023 -0.74241 0.7032 -1.1349 0.37086 1.2226 0.86404 1.2638 -0.2186 0.86632 0.90487 0.22893 0.89606 -0.40315 -0.87511 0.035569 1.4241 0.92854 1.3375 -0.45063 -0.63686 -0.74271 -0.004728 -0.9865 -1.0259 -0.11557 0.67957 -0.4153 0.30776 -0.0011682 -0.52148 0.051991 0.061178 0.16202 0.53024 0.27268 0.6781 -0.66945 1.1836 0.96424 0.80957 0.44088 0.60792
‘ -0.39499 1.0166 -0.52439 -0.81426 0.26106 -0.40792 0.44538 -0.61276 -0.11773 0.48217 0.18298 0.95712 0.28676 -0.23926 -0.58914 -0.042127 0.50231 0.16125 -0.037438 0.73358 -0.092451 -0.14347 0.84284 0.48296 0.55065 -0.45116 -1.5599 -0.40602 0.10098 0.10969 2.3676 -0.54227 -0.24843 -0.0087866 0.19348 0.082657 0.80726 -0.33253 -0.10823 0.13583 0.40989 -0.50708 -0.6904 0.090763 -0.058342 -0.076276 -0.11377 -0.67072 0.94643 0.24847
ê -1.08 0.11577 -0.15509 -0.71612 -0.18898 -0.14904 0.69454 -0.46096 0.22514 -0.66075 -0.64341 0.89854 0.70848 -1.0255 0.33488 -0.33826 -0.23132 0.48859 0.86865 0.022866 -0.8864 -1.003 0.9704 0.55045 0.33886 0.88968 -0.456 0.86452 1.029 -0.84617 -1.1588 0.47779 0.4017 0.90846 -0.89583 -0.23087 0.43739 -0.83792 -0.07928 0.059472 0.43002 -0.91626 -0.10116 0.4031 -0.075615 0.22588 -0.063003 0.30872 0.23953 1.512
7 -0.36017 0.7502 0.96994 0.43645 0.33324 0.55937 -0.48321 -0.28368 -0.67502 -0.57289 -0.17229 -0.63089 -0.36492 -0.30817 0.96069 -0.62278 -0.85378 -0.44495 -1.6041 0.72965 0.37163 -0.43534 1.0693 0.26515 -0.4554 -0.46383 0.84212 -0.70661 0.29269 -0.17144 3.1952 0.08696 -0.37659 0.43698 0.39818 -0.47434 0.8521 0.17496 0.48768 -0.32704 0.090949 -0.52031 0.62967 -1.0685 -0.62339 0.94014 0.14662 -0.86928 0.47812 0.54281
b -0.30116 0.33204 0.15823 0.90937 0.81527 0.57844 0.71019 -1.0302 0.27123 0.79128 0.51991 0.98376 -0.93796 -0.24859 -0.51284 0.19092 0.11299 -0.55316 -1.126 0.26185 -0.42071 0.3091 1.4791 0.92466 -0.54612 -0.18773 0.49344 -0.61355 -0.43817 0.12065 2.787 -0.21129 0.5784 0.7635 1.2451 -0.67338 1.1734 -0.011767 -0.11209 0.1442 0.61184 0.23579 0.056863 -0.13761 -0.21982 1.0443 0.019525 -0.77967 0.98732 0.62457
ក 0.0019936 -0.080921 0.58649 -0.072788 0.15295 -1.0316 1.8086 -0.0052455 -0.71788 0.20186 -0.46483 0.1363 0.73193 0.66622 1.0585 -0.22627 0.51752 0.22749 0.91727 0.87915 -1.0203 -0.29438 0.38729 0.95343 0.095526 1.29 -0.11184 -0.94646 0.18712 0.56912 -1.1629 -0.95851 -0.78203 0.56831 -0.67484 0.65599 -0.034458 -0.82253 0.0037999 -0.3815 0.21081 -0.08643 0.71368 0.45741 0.22051 0.42108 0.78851 0.25314 -0.23528 0.10013
ф -0.43272 -0.00099387 -0.089183 -0.14629 -0.3877 -0.00054125 0.87218 -0.2139 -0.36725 0.19202 -0.33193 0.47356 1.1817 -0.52163 0.49951 -0.76968 -0.65665 -0.61973 0.76438 -0.081968 -0.33041 -0.45573 0.28805 -0.41781 -0.18543 1.8202 0.64366 -0.056356 0.17886 -0.020376 -1.2684 -0.63518 0.079605 0.19958 -0.32933 -0.19157 0.76849 -0.98312 -0.45399 0.55751 0.74126 -0.33946 0.59319 0.53262 -0.026123 -0.53804 -0.32327 0.99446 0.21861 0.67402
г -0.84665 0.72973 -0.5399 -0.48211 -1.4896 1.1391 0.46894 -0.63823 -0.84329 -0.37835 0.32573 0.66416 0.35718 0.47543 1.2276 -0.38414 -1.3025 -0.11142 0.66725 -0.13919 0.61791 -0.59032 0.51196 0.20102 -0.12587 0.90808 -0.9824 0.19314 0.62098 0.63497 -1.3467 0.074954 -0.63818 0.36504 -0.49355 -0.28722 0.70762 -0.46234 0.086584 0.067833 0.58475 -0.56466 0.77791 -0.99516 0.048734 -0.12945 0.42882 0.71019 0.39717 1.2642
» -0.28999 1.1882 -0.70877 -0.076805 -0.85963 -0.16825 0.78607 -0.44288 -0.72475 0.39172 0.42088 0.43137 -0.19109 -0.072619 0.21799 -0.63516 0.31557 0.89674 -0.086219 0.63323 0.18551 -0.2541 0.66965 0.49759 0.059136 0.50555 -1.0717 0.049116 -0.020687 -0.18797 0.70324 -0.13416 -0.56024 0.20888 -1.0204 0.15849 0.44553 -0.099059 0.55487 0.33543 0.98759 -0.94516 0.13039 -0.81772 -0.38716 0.23584 0.097736 -0.0013596 0.35093 0.20752
ð -0.86174 0.55183 0.0735 -0.28529 -0.3184 0.029731 0.84925 -0.64587 -0.37884 -0.3493 0.27807 0.68772 0.6946 -0.76905 -0.053678 -0.34008 0.12321 0.99307 0.55312 0.75675 -0.79683 0.37711 1.0785 0.56426 0.32282 0.73802 -0.072269 0.28713 -0.84157 -0.58147 -0.95511 0.28896 0.40329 0.10969 -1.4354 -0.087185 0.5428 -1.3458 0.73709 -0.48491 1.5222 -0.8854 -0.46074 0.58206 0.57711 0.038007 -0.062452 1.1268 -0.086162 0.54278
π 1.119 0.86791 1.3856 0.91353 1.1883 0.20911 2.5661 -0.30507 -0.9947 0.19455 0.28827 0.72542 -0.18984 0.048586 -0.53653 -0.15396 0.40472 0.19523 -0.29432 0.32533 -0.1979 -0.57855 1.1618 0.76687 -0.067222 0.9035 -0.23248 -0.30184 0.11392 -0.34921 0.78082 -0.087793 -0.085993 0.055738 -0.3184 -0.78749 0.6983 -1.3009 0.70042 0.28636 1.0606 -0.62117 -0.58128 0.79456 -1.046 -0.77417 1.0492 0.18567 0.69253 0.80663
£ 0.53705 1.0197 1.174 -1.0921 0.049495 0.25693 -0.085272 -0.18729 0.062262 -0.20096 -0.36011 0.11176 0.16978 -2.6672 1.4455 -0.3087 0.8255 0.93178 -1.3854 -0.25887 1.5166 -0.62899 -0.32708 -0.52397 -0.84399 0.22603 0.90185 -0.78406 -0.62775 0.82309 2.2318 0.071304 0.57285 0.67247 0.0038825 0.52489 1.2698 0.063376 0.1593 -1.9124 1.6429 -0.82135 -0.13345 0.72465 -1.6228 -0.97813 -0.65833 -0.35846 -0.59843 -0.069146
ಮ -0.82004 -0.16933 -0.22453 0.020048 -0.82931 -1.2955 1.5533 -0.35479 -0.03529 0.4034 -1.047 -0.016441 1.4127 0.37493 1.3505 -0.11968 0.72882 0.3641 0.11532 1.3211 -0.7753 -0.84834 0.099122 1.5605 0.68742 0.5976 -0.41731 -0.35644 -0.031163 -0.017547 -1.1529 -0.72026 -0.3443 0.63571 -0.23196 0.79821 0.1234 0.016433 -0.48367 -1.1079 0.54227 0.37637 1.0411 0.36793 -0.87181 1.2574 0.93879 -0.21658 1.1456 0.2796
ಗ -0.61037 0.13437 0.034922 0.085456 -0.38961 -1.0843 1.2158 -0.64245 -0.11712 0.48695 -0.99652 -0.39439 1.2376 0.42607 1.3101 0.026644 0.83166 0.20258 0.85521 1.339 -1.2005 -0.38522 -0.14245 1.7597 0.68196 1.0175 -0.21447 -0.23029 -0.23117 0.38384 -1.0406 -0.99547 -0.31109 0.54134 -0.12125 0.74021 -0.0084698 -0.27279 -0.38124 -0.98365 0.50885 0.66548 0.77238 -0.05285 -0.41355 0.96694 0.97194 0.39238 0.98699 0.5987
õ -0.46577 0.039823 -0.34259 -0.76401 -0.12857 -0.62808 1.0886 0.094792 0.7734 -0.21096 0.22851 0.96569 0.36558 0.38601 -0.42707 -0.16387 0.44245 -0.13513 0.69755 0.29466 -0.20533 -0.38924 0.23157 0.30296 0.52395 1.2721 0.43348 0.56691 0.25071 -0.089728 -0.88652 -0.56654 0.25803 0.90249 -0.58564 0.074145 0.77182 -0.87662 -0.12941 0.39152 0.70256 -1.0076 0.44665 0.053931 0.049969 -0.51527 0.41001 0.43404 0.8436 0.41119
1 -0.32313 0.89266 0.54943 0.59294 0.56707 0.37888 -0.036071 -0.18445 -0.6102 -0.27874 0.1987 -0.13458 -0.12 -0.80437 0.69032 -0.56864 -0.3787 0.022928 -1.6365 0.43987 0.2869 -0.99327 1.2016 0.40906 -1.0473 -0.80572 0.78073 -0.298 0.49566 -0.18523 3.6489 0.30559 -0.59888 0.84786 0.30806 -0.46975 0.51175 0.44654 0.86962 -0.83334 0.95202 -0.68141 0.52714 -0.9841 -0.68455 1.1837 0.16568 -0.34587 0.49963 0.47765
g -0.35658 1.2814 0.7019 1.4145 0.65636 0.86436 1.0459 -0.62665 -0.044058 0.036286 0.36244 -0.089784 -1.2906 -0.64072 0.095562 -0.2388 0.19787 0.090883 -1.36 -0.72238 -0.55138 -0.7242 1.3202 0.67813 -0.69795 0.3774 -0.35155 -0.33135 0.49622 -0.19362 2.0005 0.36353 0.46332 0.76967 1.0254 -1.1172 1.091 0.16447 0.28255 0.73044 0.58786 -0.26862 0.13951 -0.14725 -0.048816 0.82328 0.26864 -0.52807 0.23075 1.5786
κ 0.83147 1.8592 0.4629 -0.30804 1.2688 -0.9581 1.6757 -0.2335 -1.2875 0.74591 0.85233 0.53069 0.39285 -0.40652 0.73615 -0.1465 -0.45122 0.53766 -0.17556 -0.10546 -2.2174 -1.0782 -0.1957 0.80409 -0.45051 0.98263 0.27785 0.67276 0.0028563 0.28951 -0.11994 1.072 0.28556 -0.28434 -0.48518 -0.33742 1.3406 -1.0493 0.12533 0.81738 0.89192 0.17996 -0.79181 0.91821 -1.1473 0.22514 -0.25452 0.092771 -0.3235 0.89598
— 0.010433 0.6589 -0.46656 -0.48282 0.20433 0.71691 -0.10188 -0.056015 -0.51648 -0.18549 0.44089 0.62144 0.2008 -0.46484 -0.30771 -0.31477 0.11904 0.31128 -0.8108 -0.16528 0.096998 -0.4347 0.43265 0.36094 0.35321 -0.92383 -0.94463 -0.47925 0.2865 -0.13723 2.7387 -0.59285 0.030306 -1.0824 0.25815 0.034536 0.27306 0.026166 -0.3665 0.25122 0.10368 -0.4616 -0.044639 -0.16673 -0.79689 0.097931 -0.081018 -0.83806 0.027366 -0.077166
¥ 0.015182 0.65179 1.6895 0.46621 0.32657 -0.29146 0.69582 0.37398 0.60936 -0.39214 -0.4618 -0.90272 -0.0048571 0.67671 1.1132 0.21357 -0.11518 -0.21067 -0.4545 0.041155 0.03603 0.24813 -0.6373 0.29566 0.10202 -1.5187 0.61706 0.08847 -0.7741 0.94968 1.1029 0.42828 -0.79818 1.4567 -0.19584 -0.55698 0.13142 -1.8296 -0.046114 -1.3802 0.096969 0.48922 1.2677 -1.3455 1.0315 0.95083 0.236 0.95792 0.8518 -0.76228
u -0.25676 0.8549 1.1003 0.95363 0.36585 -1.3029 1.0754 -0.18461 -0.67674 0.37637 -0.029637 0.51698 -0.19248 -0.41863 -0.71144 0.12564 -0.42965 0.61456 0.41819 0.27606 -0.48635 -0.32585 0.67748 0.15916 0.35051 -0.29393 -0.80439 -0.15939 0.012475 -0.58404 2.1353 -0.1547 -0.5739 1.4522 0.6124 -0.68752 1.2839 -0.54631 -0.35737 0.57323 0.3546 -0.37465 -0.74628 -0.074561 -0.48471 0.067343 -0.039338 -0.22177 0.099708 0.55553
ה -1.2403 0.21293 0.14572 -1.4798 -0.97556 -0.85285 0.25522 -0.16676 -0.12987 -0.023962 -0.19331 0.94087 1.2853 0.51454 -0.082982 -1.0393 -0.4949 -0.45325 0.82803 0.49383 -0.36813 -0.60845 0.8716 0.3778 0.43144 1.0197 0.075669 -0.21395 -0.61931 -0.29602 -1.1169 0.04482 -0.44782 0.6797 -0.68599 -0.090811 0.58885 -0.60612 -0.070465 0.01136 0.93153 -0.509 0.3591 0.14247 0.097821 -0.20006 0.35362 0.66091 0.55475 0.76904
| -1.907 1.1483 1.0638 0.67799 0.39109 -0.079281 0.99929 -0.60806 -0.60904 -0.76143 0.32619 -0.45392 0.22282 -0.56141 -0.41878 0.30121 0.046203 0.039587 -0.33694 0.60648 -0.67586 -0.91086 0.89554 0.89392 -0.34381 0.65148 -0.69206 -0.031219 -0.28128 -0.19946 1.0607 0.36882 0.26862 0.15923 -0.13853 -0.13449 1.2239 -0.3152 0.2744 -0.30966 0.82571 -0.3886 -0.39882 -0.5404 -1.4785 1.0106 -0.04942 -0.32194 1.0395 0.42791
¡ -0.60001 -0.089898 0.63803 -0.16766 -0.80307 -0.66645 0.33374 -0.79781 -1.0927 1.5024 0.24373 -0.12771 -0.33154 0.24753 0.16374 -1.2456 0.23399 0.54249 0.18452 0.49676 -0.66389 -0.35111 0.48065 0.10818 0.22503 0.57482 -1.4672 0.6432 0.18641 -1.9923 -0.69348 0.91106 -1.738 0.5316 -1.0866 -0.41962 0.6867 -1.5264 0.24551 0.52637 0.1424 -0.62016 -0.80733 -1.2599 -1.3012 -0.99759 0.3712 0.20329 0.86989 0.089663
ψ 0.57495 0.66901 0.93959 1.271 0.64659 0.1837 2.1444 0.15133 0.243 -0.16395 0.30706 1.0254 -0.34142 -0.35917 -0.43978 0.035696 0.55164 0.39122 0.0083298 -0.35931 -0.98663 -0.48895 1.2689 0.18914 0.37535 1.1264 -0.24728 0.20361 -0.59854 -0.29489 0.059365 0.1415 -0.50525 -0.62385 -0.35195 -0.48157 1.1405 -1.2781 1.2738 0.66536 0.53774 -0.36872 -1.7076 0.94645 -1.9215 0.67519 0.19735 0.0769 0.57532 0.3911
ß 0.5351 0.014384 0.1465 -1.2333 -0.19081 -0.51458 1.8272 -0.012606 -0.49483 -0.30355 0.43466 0.98169 0.46685 0.21043 -0.13097 -0.19956 -0.46866 -0.047568 0.63133 0.3846 -0.051769 -0.98937 -0.20833 -0.0093506 -0.60054 -0.10737 -0.23052 0.73876 -0.55536 -0.13793 -0.84242 -0.26399 0.1587 0.2184 -0.52274 0.16675 0.77963 -1.4153 -0.50207 -0.20775 0.86995 0.11977 0.73197 -0.82363 0.34118 -0.76944 0.38108 0.91114 0.43775 0.3431
h -0.22701 0.70329 0.96125 0.93479 0.7205 -0.1331 1.1096 -0.65448 -0.33254 0.026558 0.41826 0.33236 -1.1051 -0.64923 -0.65931 0.065782 0.066242 -0.28731 -0.90173 -0.12568 0.11701 -1.031 0.65105 0.55934 -0.59268 0.044907 -0.2742 -0.46981 0.23547 -0.090104 1.9496 0.049973 0.57091 0.71484 0.016442 -1.0146 0.89608 -0.24279 0.074308 0.63277 1.1199 -0.59927 -0.28288 -0.060586 0.2424 0.32727 0.057095 -0.71875 0.53529 1.0554
v 0.18445 1.2654 0.039013 0.81299 -0.38684 0.043967 1.3261 -0.35761 -0.78231 -0.85768 0.61785 0.68713 -0.4428 -1.5668 -0.2601 0.47145 -0.25019 -0.10296 -1.3895 0.60928 -0.87949 -0.84571 0.35826 1.0175 -0.62356 -0.71067 0.75616 -0.59316 -0.36835 -0.055798 1.7206 0.59632 -0.38931 0.54888 0.22115 0.046957 0.83892 -0.24042 -0.16755 -0.60332 2.2561 0.23395 0.5794 -1.1771 -0.023152 2.0246 0.090327 -1.0687 0.59712 -0.28397
ར -1.6283 1.6896 -0.27332 0.13307 0.023738 -0.58855 0.57018 -0.4021 0.51264 -0.40615 -1.4456 0.085111 1.9521 -0.45623 1.0588 -0.38871 1.3317 -0.60595 1.0314 0.83381 -1.1452 -0.45364 -0.79668 1.942 1.4225 0.66225 0.5197 -0.57318 0.48824 -1.1735 -0.8763 -1.0822 -0.81257 0.076904 -1.2529 0.63463 0.37944 -1.3758 0.51247 0.45857 0.55604 0.61303 0.93158 0.40144 0.68044 1.5166 0.97013 0.28745 0.56941 0.21092
і -0.3948 0.49721 0.29927 -0.67893 0.025336 0.15911 0.68314 0.71817 -1.3757 -1.1594 -0.46411 1.087 1.324 0.16352 0.088755 -0.5043 -0.49224 0.15464 0.75319 -0.23834 0.038081 -0.44537 0.91663 0.51361 0.52789 0.65115 -0.12034 0.36867 0.60795 -0.96468 -1.1982 0.17018 -0.51554 0.23678 -0.20515 0.16521 0.64677 -1.1063 0.36633 0.74874 0.73987 0.036916 0.7589 -1.0131 0.017049 0.44558 -0.10687 0.8782 0.47355 1.2109
ග -0.61258 -0.31904 -0.13094 -0.48342 -0.50918 -0.55339 1.2403 -0.11023 -0.35574 0.41187 -0.3713 -0.43113 1.198 0.16647 0.37986 -0.015816 -0.086653 0.13131 0.40036 1.1022 -1.0128 0.1625 0.3969 1.5613 0.48668 1.5661 -0.37127 -0.2056 0.60325 0.39586 -1.0686 0.11181 -0.266 0.92541 -0.47806 0.21685 0.078158 -1.2023 -0.56928 -0.60726 0.95545 -0.68922 0.50056 0.21427 -0.28959 1.2518 0.97932 1.0762 0.15622 0.32484
$ 0.43889 0.90301 1.406 0.20469 0.69453 0.26449 -0.91118 -1.4847 0.20981 0.52693 -1.3998 -0.31563 0.73779 -1.0641 1.8671 -0.3536 -0.66203 0.41229 -0.87078 -0.6704 1.3467 -0.026579 -0.18787 -1.1795 -1.4423 -1.0407 0.38038 -0.40186 0.21573 -0.7167 3.2422 0.61623 -0.014502 1.4616 0.54571 -0.69571 -0.12738 0.015536 1.2232 -1.4741 0.19271 0.41512 1.1185 0.67059 -1.3985 -0.13803 -0.37563 0.074431 -0.6935 0.81354
ō -0.4902 1.0155 -0.93802 -0.8394 -1.2167 -0.13844 0.9943 -0.42368 -0.24686 -0.37315 -0.041187 1.4315 0.035373 -0.18775 -0.93927 0.38495 -0.26858 0.049944 1.2519 1.1133 -0.70674 -0.11164 0.67277 0.39327 0.40839 1.0857 -0.23197 0.33303 0.43818 0.36062 0.0040079 -0.30426 0.52048 1.334 0.12227 0.14575 0.73373 -1.161 -0.05681 0.0097165 0.056561 -1.4359 0.031236 0.22757 0.72531 -0.89795 0.38607 -0.54148 1.0768 0.32923
j -0.23762 0.93274 0.67474 0.8006 0.51139 0.36629 0.30406 -0.5992 -0.32128 0.35658 0.32339 0.71779 -0.95436 -0.47259 -0.37128 0.25371 -0.0055014 0.11804 -0.89571 -0.28568 -0.025093 -0.20562 0.97375 0.43638 -0.83051 0.1482 -0.37859 -0.33272 -0.43462 -0.21437 1.2621 -0.16734 0.53886 0.4801 0.71852 -0.99548 1.084 -0.41862 0.24182 -0.1039 0.79735 -0.40892 -0.665 -0.21272 0.47507 0.81402 -0.42822 -0.44494 0.28029 1.071
و -0.5658 0.35205 -0.00087456 -0.64416 -0.86335 -0.92221 0.9778 -0.60158 -0.13326 -0.22553 -0.0072187 1.1292 1.6662 0.33649 0.15738 0.19151 -0.06402 0.55607 0.1095 1.5703 -0.96298 -0.83341 1.061 0.66766 0.17168 0.76995 -0.40761 -0.038442 0.74343 0.53201 -0.83387 -0.61366 -0.17787 1.4502 -0.22486 0.49601 -0.37027 -1.1029 -0.52933 -0.13807 0.91669 -0.26545 1.1798 0.23652 -0.31628 0.64785 0.66051 0.99363 -0.42542 0.15522
ର -0.47673 -0.091794 -0.20202 0.00021218 -0.91597 -0.044945 0.91984 -0.97186 -0.24885 0.13889 -0.081806 0.11983 1.4011 0.65138 -0.24911 -0.32919 -0.22715 0.9838 0.32329 1.1387 -0.44284 -0.37863 -0.18467 1.5526 0.55153 1.0067 -0.27293 -0.19019 0.15736 -0.2301 -1.0173 0.50989 0.22981 0.88397 -0.90098 0.47978 -0.0064297 -1.196 -0.33102 0.1431 1.0148 -0.10742 0.43894 0.0033968 -0.14698 0.52844 0.82083 1.2016 0.45954 0.79719
പ -0.34659 0.11106 -0.14429 0.35923 -0.55892 0.10213 1.1693 -1.1119 -0.36868 0.65067 -0.53073 0.47107 0.91622 0.97895 0.88569 -0.38156 -0.24101 0.90816 -0.37979 0.38587 -0.46448 -0.46561 -0.021052 1.5322 0.4741 1.0275 0.12759 0.38677 -0.04894 0.14302 -1.2302 -0.13281 0.061966 0.5721 -0.049351 0.068265 0.13578 -1.5367 -0.43278 0.026199 -0.14132 0.61452 0.40601 0.37476 -0.645 0.715 0.94307 0.85045 1.129 0.3969
и -0.99574 1.3808 -0.30356 -0.75675 -0.90247 0.25208 1.4351 -0.49071 -1.3925 -0.16455 0.28435 0.18605 0.48365 -0.074644 0.28609 -0.8431 -0.13305 1.1945 0.78489 0.5825 -0.36409 -0.19515 1.1459 0.62686 0.5363 1.0041 -1.2174 0.55662 0.80084 0.0104 -0.26276 -0.27917 -1.0201 0.77434 -0.6253 0.31786 0.82315 -0.13622 0.64732 0.78052 1.1841 -1.3407 1.2139 -1.1991 -0.17111 0.40927 0.28903 1.0098 0.97062 0.55637
ប -0.7271 -0.5269 0.27515 -0.39021 -0.59466 -0.86 1.5312 -0.040597 0.062902 0.36855 -0.031981 0.24026 0.68362 0.70172 0.81203 -0.34544 0.27053 0.37725 0.9166 0.71507 -0.75237 -0.34314 0.24016 0.81683 0.031171 1.7454 0.21702 -0.91442 0.22337 0.49389 -1.1126 -0.88877 -0.79547 0.48204 -0.42959 0.6735 0.61651 -0.70996 -0.04739 -0.35311 0.13077 -0.94624 0.51837 0.99799 -0.63809 -0.18026 0.95479 0.66271 0.0044374 0.46727
ක -0.65984 -0.30253 -0.18632 -0.73047 -0.12545 -0.74981 1.2482 -0.13229 -0.30662 0.2776 -0.40744 -0.15378 1.0298 -0.20055 0.444 0.27988 0.57014 0.19184 0.24904 1.5219 -1.2483 0.17244 0.22498 2.1367 0.48702 1.1583 -0.67744 -0.60555 0.6495 0.80134 -1.1535 -0.14721 -0.70495 0.66874 -0.22165 0.39909 -0.031 -1.4515 -0.81509 -0.71133 0.8149 -0.36513 0.29281 0.32369 -0.46059 1.6505 0.7396 0.73811 0.66165 0.01557
ζ 0.56904 0.81881 0.48808 1.3904 0.84616 -0.13484 1.9721 0.62879 -0.26108 -0.023094 1.4456 0.4955 -0.052655 0.14415 0.7031 -0.50487 0.27286 0.89364 0.53909 0.26751 -0.65169 -0.52949 0.48491 1.438 -0.78356 1.1762 -0.46631 0.57444 -0.19532 -0.021547 -0.08835 0.60572 0.6632 0.44342 -1.1864 0.2605 0.394 -0.76489 0.76311 0.1832 1.6857 0.5956 -0.63467 -0.52603 -1.4902 -0.71437 -0.43434 -0.11049 0.23565 0.63236
ד -0.54605 0.65274 0.046633 -1.8043 -0.96017 -1.0753 -0.20512 -0.69331 -0.25505 0.25028 -0.40893 0.98023 1.2261 -0.070006 0.50955 -0.76987 -0.42992 -0.41464 0.77897 0.85511 -0.91369 -0.91969 0.5806 0.57793 0.28402 1.1905 -0.90654 -0.43782 -0.065028 -0.062866 -1.1524 0.3442 -0.43805 0.96869 -0.46275 -0.090113 0.40809 -0.56561 0.34758 -0.17625 0.41823 -0.7895 0.3341 0.36665 0.2983 0.18604 0.61163 0.2306 0.23575 0.89125
⅔ -0.44447 -0.20873 -0.037005 -0.36038 0.24722 0.85644 0.93099 0.50133 -1.1762 1.0842 -0.63638 -0.62332 0.51612 0.12904 -0.43132 -2.1702 -0.38262 0.19471 -0.064409 0.2696 0.13191 -0.25019 0.72923 -0.18242 0.52466 2.0735 1.3921 -0.77388 1.2452 -0.10284 1.3361 0.41388 0.21526 1.2025 -0.10627 0.37095 0.85616 0.36127 -0.062458 1.3198 0.27012 -0.90831 -0.75799 0.026392 -1.4322 0.84727 -0.18696 0.17194 -0.71087 0.4111
à 0.20237 1.0046 -2.3059 -0.96544 -1.139 -0.75463 1.3765 0.1375 -0.45062 0.34144 -0.46043 1.1785 -0.062818 -0.48893 -0.31284 -1.5401 0.45008 0.22365 -0.75444 0.059183 0.065571 0.25963 0.48701 -0.23768 -0.95587 0.4153 -1.1799 0.39255 -0.089306 0.20141 0.72762 -0.36806 -1.2712 1.6904 -0.093136 -0.31858 1.0886 -0.40362 0.93425 0.84816 1.1953 -0.2778 0.39037 -0.3049 -1.3974 -0.38944 -0.19665 -0.46324 0.57765 0.88981
ú -0.46005 0.082292 -0.12098 -0.085092 -0.38296 -0.56899 1.0923 -0.53534 0.34448 0.37525 -0.0094084 0.35028 0.40694 -0.26975 -0.19888 -0.063763 -0.56911 0.10576 1.8426 0.92521 -1.1398 0.29773 0.24757 0.75314 1.622 1.1806 -0.68886 -0.58402 -0.74413 0.12612 -0.41062 0.5225 -0.0048205 1.167 -0.48158 -0.24308 0.7142 -0.97566 0.58129 0.93793 -0.12642 -0.1407 -0.99556 0.069739 0.34588 0.1202 0.3881 0.15506 0.86129 0.67167
ś -0.32615 -0.071292 0.27823 -0.17543 -0.62792 -0.031143 0.66746 -0.043261 0.11556 0.30694 -0.04629 0.34029 0.39245 0.40308 -0.062599 -0.44197 -0.47922 0.0011829 1.1228 0.40711 0.012796 0.16729 0.56242 0.61098 0.43468 1.292 -0.64485 0.1357 0.42659 -0.06944 -0.93888 -0.11667 0.016937 0.71519 -0.57404 -0.14969 0.062443 -1.0984 0.10088 -0.27383 0.55833 -1.0439 0.38609 -0.42707 0.61827 -0.34248 0.49627 0.62297 0.72859 0.61482
x 0.52669 1.6009 1.822 0.95336 0.5721 0.383 0.76729 -1.6539 0.23842 -0.31595 0.012596 0.1561 -0.67865 0.18208 0.54657 -0.15427 -0.93907 -0.044995 -1.0153 -0.16645 -1.1026 -0.048263 1.0927 0.14736 -0.37286 0.0090402 -0.80239 -0.4917 0.30821 -0.087714 2.2896 -0.15124 -0.68966 -0.082019 0.38181 -0.34059 1.1077 -0.39044 -0.091761 0.11585 0.53802 -0.29055 0.73364 0.22701 -0.6085 1.1221 0.52212 -0.83873 0.043014 0.6167
3 -0.30911 0.83297 0.80062 0.56465 0.42351 0.68135 -0.14517 -0.30804 -0.72869 -0.4448 -0.0039224 -0.34766 -0.25331 -0.44646 0.59499 -0.67118 -0.47467 -0.16652 -1.7268 0.4528 0.20172 -0.79686 1.2426 0.32373 -0.7365 -0.42672 0.93337 -0.57275 0.38087 -0.47722 3.5561 0.31519 -0.35648 0.60379 0.46394 -0.23267 0.58278 0.22066 0.73519 -0.54679 0.49996 -0.67417 0.63789 -1.0965 -0.51352 1.2085 0.29816 -0.75945 0.50245 0.35659
0 -0.2599 0.77356 0.35438 1.0866 0.43132 0.56912 0.89467 -0.28327 -0.9137 0.36018 -0.060655 -0.34676 -0.45188 -1.8003 -0.28759 -0.57913 0.40716 -0.7244 -2.0067 1.1478 -1.1683 -1.005 1.778 1.0412 -0.8613 0.045145 1.5059 -0.25119 0.71285 -0.66814 2.5142 1.2941 0.017046 0.39161 0.64801 -0.68647 0.71259 0.21012 0.28067 -0.10846 0.93836 -0.47266 0.56314 -0.6522 -1.0101 2.3917 -0.077347 -0.46669 1.3464 0.081261
μ 0.36441 0.78484 0.85519 0.63588 1.1062 -0.69894 2.9987 -0.8252 -0.053597 1.168 0.88461 0.33506 0.46771 -0.93474 0.35212 0.5581 0.53859 -0.2293 -0.30267 -0.18851 -1.2388 -1.0873 0.46729 -0.059038 -0.52049 0.90854 0.0036257 0.68866 0.58861 0.21244 0.56668 0.53094 -0.5804 -0.080505 -0.59553 -0.76025 1.74 -1.4288 0.43239 1.0903 0.60106 0.96799 -1.0784 0.16209 -1.2441 -0.069524 0.16895 -0.17381 0.38418 0.98118
ស -0.33737 -0.090273 0.61171 -0.54013 -0.43981 -0.87377 1.9995 0.27158 -0.43853 0.58004 -0.26618 0.15496 0.61387 0.39944 0.77542 -0.20768 0.28137 0.11654 0.54883 1.0503 -1.1058 -0.33035 0.68897 0.77813 0.070007 1.482 0.053789 -0.62418 0.96557 0.74698 -1.3348 -0.80867 -0.62037 0.15452 -0.47014 0.42186 0.21968 -0.91273 -0.20244 -0.32051 0.15673 -0.64657 0.7313 0.65442 -0.69058 0.10819 0.89462 0.35319 -0.13096 0.42407
រ -0.39592 -0.21475 0.5459 -0.39147 -0.048352 -1.214 2.279 0.18212 -0.45577 0.4506 -0.20729 0.18159 0.82991 0.44077 0.97311 0.016941 0.61238 0.32811 0.6285 1.4979 -1.1345 -0.53507 0.56751 1.0575 0.19402 1.1128 -0.35984 -1.027 0.7504 0.53751 -1.2771 -1.0749 -0.75455 0.23876 -0.54045 0.52912 0.19815 -0.92553 0.055233 -0.17107 0.018893 -0.69244 0.87657 1.0986 -0.52316 0.34953 1.0487 0.50844 0.01017 0.18579
# -1.5925 0.75569 1.4947 0.11055 -0.05244 0.51893 -0.61283 -0.33189 0.1533 -0.17681 -0.34256 0.0010057 -0.67281 0.32264 0.4033 -1.183 -0.44742 0.25633 -1.6399 0.33532 0.1125 -0.39391 1.1817 0.90325 -0.088998 0.049876 -1.2684 -0.83517 0.35747 -0.17869 1.9297 -0.68884 0.26064 0.0046655 0.64509 -0.23729 0.88325 -0.95139 -0.031632 -1.2398 0.090161 -1.2927 0.18976 -1.1884 -1.0836 1.3852 0.31768 -0.84084 0.49488 0.34052
з -0.27833 -0.33595 0.61531 -0.65274 -0.46187 -0.35085 0.92094 0.27784 -0.50128 -0.03709 0.12412 0.73648 -0.04734 0.12874 0.5105 -0.58367 0.043327 -0.35258 1.3091 0.37513 -0.44126 0.12713 0.50489 0.58427 0.86589 1.1943 0.74702 0.36933 -0.41428 -0.45459 -1.2738 -0.43522 -0.36434 0.4639 -0.67292 0.44925 0.75334 -1.0571 -0.22299 0.49489 1.1376 0.15289 0.16143 -1.1233 0.48886 -0.55458 0.52832 0.78273 0.69473 0.27043
ρ 0.11294 0.45287 0.74609 0.99054 1.3376 -0.014342 2.9394 -0.37037 0.40193 -0.18629 0.76815 -0.08261 0.45981 -0.88708 -0.0964 0.087469 0.48611 0.97169 -0.25127 -0.32474 -0.7523 -0.53136 0.98728 0.95422 -0.65432 0.32812 -0.21624 0.74537 0.1708 -0.013133 0.051675 0.2839 -0.6599 -0.64359 -0.4567 -0.40294 0.98066 -1.9212 0.83036 0.99788 0.68699 0.34834 -1.0235 0.49405 -1.3767 -0.29874 0.14459 -0.012908 1.001 0.53848
神 -0.93583 0.88943 -0.50107 -0.46626 0.0075517 -0.58081 1.2476 0.37031 -0.24895 0.60641 0.85117 1.2267 0.92642 0.51058 -0.36078 -0.2889 0.41874 0.3931 0.53151 0.5473 -0.67854 0.21773 0.70647 -0.21157 1.0356 1.0557 -0.036297 -0.10687 0.026242 0.17255 -1.0297 0.23744 -0.26428 0.73189 -1.131 -0.28459 0.61934 -0.51542 0.062226 0.57623 0.8359 -0.76336 0.33212 -0.47216 0.49436 -0.28038 -0.58222 0.20453 0.35814 0.78234
… -0.29317 0.40853 -0.33864 -0.51048 0.70926 -0.19915 0.85861 -0.057151 -0.38268 0.37696 0.073189 0.57895 -0.17146 -0.53171 0.24612 -0.26859 0.49583 0.38142 0.098846 0.073221 -0.2831 0.32308 0.73795 0.24775 0.99444 -0.1614 -1.1411 -0.27577 0.77427 -0.34591 1.7546 -0.001029 -0.05666 -0.2613 -0.39687 0.079826 0.49462 -0.12352 0.06221 0.11853 0.38208 -0.91746 -0.0099595 0.1601 -0.41623 0.24994 0.038409 -0.33172 0.19551 0.35758
í -0.321 1.1975 -0.31405 -1.0024 -0.034963 -1.0758 -0.29568 -0.66682 0.17029 0.61648 0.40741 0.19065 0.64765 -0.015437 -0.46532 0.33735 0.21864 -0.42535 1.2707 1.6124 0.097166 0.00613 0.3274 0.83402 0.87795 0.40893 -0.96667 -1.2707 -1.0533 0.22791 0.63982 0.18616 -0.77367 -0.91226 -0.50228 -0.67607 0.25238 -0.97186 0.40286 1.6773 -1.0309 -1.3169 -0.63971 0.6432 -0.9249 0.93795 -0.39267 -0.4112 0.3745 -1.3278
м -0.37652 -0.13856 0.46499 -0.278 -0.60889 -0.6283 1.1584 -0.77298 -0.81897 -0.72977 -0.085917 -0.15215 0.36045 0.096278 0.64896 0.26312 -0.39161 0.03279 0.75325 0.48791 -0.57285 -0.11098 0.67786 0.3438 0.48985 1.5862 0.15476 0.17916 0.94142 0.67296 -1.1293 -0.38983 0.093663 0.18345 -0.48152 0.33757 0.01848 0.30183 0.24957 0.020694 0.71586 -0.54884 1.3449 -0.32776 0.21107 0.061452 1.1281 0.28973 0.18796 0.99257
] -0.6297 0.69044 0.55243 -0.062592 0.45604 -0.10409 0.60796 -0.52887 -0.86095 0.042727 0.06964 0.65669 -0.22589 -0.62967 0.32793 -0.015011 0.14491 0.18763 -0.23258 0.25128 -0.58434 -0.20308 1.1255 0.41607 0.49414 -0.43411 -0.34465 -0.15613 0.71738 -0.665 2.102 0.044444 -0.24947 -0.11691 -0.40116 -0.2891 0.78036 -0.53631 0.51513 0.12626 0.64765 -0.57939 -0.16513 0.023644 -0.52152 0.62582 0.15187 0.072398 0.25744 1.0729
ස -1.2335 -0.65235 -0.11969 -0.74479 -0.20706 -0.93564 0.93714 -0.38576 -0.7272 0.38069 -0.38639 -0.27717 0.9715 -0.14931 1.077 0.030313 -0.28177 -0.19546 -0.12708 1.5839 -1.0962 0.41088 0.73704 1.714 0.52833 1.2177 -0.25701 -0.94811 0.54351 0.99572 -1.1138 0.20207 -0.50946 1.125 -0.36467 -0.32083 -0.14064 -1.3276 -0.60709 -0.77196 0.65379 -0.4262 0.66986 0.46339 -0.36176 1.6284 0.87202 1.1163 0.28651 0.3484
: -0.17587 1.3508 -0.18159 0.45197 0.37554 -0.20926 0.014956 -0.87286 -0.54443 -0.25731 -0.521 0.62242 -0.52387 -0.061782 1.1805 -0.041984 0.10582 -0.20913 -0.54508 0.027728 -0.31329 0.13439 0.55192 0.75419 0.30996 -1.3301 -0.9862 -0.33747 0.17633 -0.37547 3.4474 0.14171 -0.65033 0.10118 0.00014796 -0.074707 0.19146 -0.47977 0.39628 -0.13403 0.43043 0.45704 0.59387 -0.40308 0.067302 1.2784 0.49927 0.15617 0.5665 0.61385
û -0.98735 -0.69794 -0.38265 -0.67465 -0.44029 -0.29705 1.1199 -0.032845 0.091582 -0.21996 -0.035758 0.65756 0.49063 0.2668 0.24477 0.033795 0.7174 0.19586 0.76038 0.39175 -0.84293 -0.34542 1.0545 0.75399 0.13318 1.2362 -0.37472 0.33116 1.0759 0.14987 -1.3866 0.12797 -0.89966 0.86376 -0.67444 0.4259 -0.28025 -0.87889 0.4753 0.21916 0.064916 -0.01229 -0.12941 -0.42322 0.018459 -0.23785 0.5227 0.023635 0.60241 1.0281
š -0.97076 -0.41116 0.44188 0.41711 -0.72631 0.8409 1.0429 -0.89085 0.23155 -0.04862 0.52716 0.55351 -0.03747 -0.035763 -0.5848 0.013776 -1.2246 0.27847 0.98875 0.78397 0.097961 0.28162 1.0848 0.84849 0.44938 0.71951 -1.0316 0.19674 0.91126 -0.04672 -0.31409 0.38087 0.79733 0.88749 -0.53028 -0.16162 0.13498 -2.1391 -0.040206 0.070871 0.50433 -0.54968 0.15673 -1.3635 0.77774 0.87882 0.31828 0.2747 0.81892 0.39665
